{"learner":{"attributes":{"scikit_learn":"{\"_estimator_type\": \"regressor\"}"},"feature_names":["temperature_2m_c","wind_speed_100m_ms","wind_gusts_10m_ms","cloud_cover_pct","shortwave_radiation_wm2","direct_radiation_wm2","diffuse_radiation_wm2","pressure_msl_hpa","precipitation_mm","biomass","fossil_gas","fossil_hard_coal","hydro_pumped_storage","hydro_run_of_river_and_poundage","nuclear","other","solar","wind_offshore","wind_onshore","totaloutput_mw","hour_sin","hour_cos","dow_sin","dow_cos","doy_sin","doy_cos","carbon_lag_48","carbon_lag_336","carbon_lag_17520"],"feature_types":["float","float","float","float","float","float","float","float","float","float","float","float","float","float","float","float","float","float","float","float","float","float","float","float","float","float","float","float","float"],"gradient_booster":{"model":{"cats":{"enc":[],"feature_segments":[],"sorted_idx":[]},"gbtree_model_param":{"num_parallel_tree":"1","num_trees":"1500"},"iteration_indptr":[0,1,2,3,4,5,6,7,8,9,10,11,12,13,14,15,16,17,18,19,20,21,22,23,24,25,26,27,28,29,30,31,32,33,34,35,36,37,38,39,40,41,42,43,44,45,46,47,48,49,50,51,52,53,54,55,56,57,58,59,60,61,62,63,64,65,66,67,68,69,70,71,72,73,74,75,76,77,78,79,80,81,82,83,84,85,86,87,88,89,90,91,92,93,94,95,96,97,98,99,100,101,102,103,104,105,106,107,108,109,110,111,112,113,114,115,116,117,118,119,120,121,122,123,124,125,126,127,128,129,130,131,132,133,134,135,136,137,138,139,140,141,142,143,144,145,146,147,148,149,150,151,152,153,154,155,156,157,158,159,160,161,162,163,164,165,166,167,168,169,170,171,172,173,174,175,176,177,178,179,180,181,182,183,184,185,186,187,188,189,190,191,192,193,194,195,196,197,198,199,200,201,202,203,204,205,206,207,208,209,210,211,212,213,214,215,216,217,218,219,220,221,222,223,224,225,226,227,228,229,230,231,232,233,234,235,236,237,238,239,240,241,242,243,244,245,246,247,248,249,250,251,252,253,254,255,256,257,258,259,260,261,262,263,264,265,266,267,268,269,270,271,272,273,274,275,276,277,278,279,280,281,282,283,284,285,286,287,288,289,290,291,292,293,294,295,296,297,298,299,300,301,302,303,304,305,306,307,308,309,310,311,312,313,314,315,316,317,318,319,320,321,322,323,324,325,326,327,328,329,330,331,332,333,334,335,336,337,338,339,340,341,342,343,344,345,346,347,348,349,350,351,352,353,354,355,356,357,358,359,360,361,362,363,364,365,366,367,368,369,370,371,372,373,374,375,376,377,378,379,380,381,382,383,384,385,386,387,388,389,390,391,392,393,394,395,396,397,398,399,400,401,402,403,404,405,406,407,408,409,410,411,412,413,414,415,416,417,418,419,420,421,422,423,424,425,426,427,428,429,430,431,432,433,434,435,436,437,438,439,440,441,442,443,444,445,446,447,448,449,450,451,452,453,454,455,456,457,458,459,460,461,462,463,464,465,466,467,468,469,470,471,472,473,474,475,476,477,478,479,480,481,482,483,484,485,486,487,488,489,490,491,492,493,494,495,496,497,498,499,500,501,502,503,504,505,506,507,508,509,510,511,512,513,514,515,516,517,518,519,520,521,522,523,524,525,526,527,528,529,530,531,532,533,534,535,536,537,538,539,540,541,542,543,544,545,546,547,548,549,550,551,552,553,554,555,556,557,558,559,560,561,562,563,564,565,566,567,568,569,570,571,572,573,574,575,576,577,578,579,580,581,582,583,584,585,586,587,588,589,590,591,592,593,594,595,596,597,598,599,600,601,602,603,604,605,606,607,608,609,610,611,612,613,614,615,616,617,618,619,620,621,622,623,624,625,626,627,628,629,630,631,632,633,634,635,636,637,638,639,640,641,642,643,644,645,646,647,648,649,650,651,652,653,654,655,656,657,658,659,660,661,662,663,664,665,666,667,668,669,670,671,672,673,674,675,676,677,678,679,680,681,682,683,684,685,686,687,688,689,690,691,692,693,694,695,696,697,698,699,700,701,702,703,704,705,706,707,708,709,710,711,712,713,714,715,716,717,718,719,720,721,722,723,724,725,726,727,728,729,730,731,732,733,734,735,736,737,738,739,740,741,742,743,744,745,746,747,748,749,750,751,752,753,754,755,756,757,758,759,760,761,762,763,764,765,766,767,768,769,770,771,772,773,774,775,776,777,778,779,780,781,782,783,784,785,786,787,788,789,790,791,792,793,794,795,796,797,798,799,800,801,802,803,804,805,806,807,808,809,810,811,812,813,814,815,816,817,818,819,820,821,822,823,824,825,826,827,828,829,830,831,832,833,834,835,836,837,838,839,840,841,842,843,844,845,846,847,848,849,850,851,852,853,854,855,856,857,858,859,860,861,862,863,864,865,866,867,868,869,870,871,872,873,874,875,876,877,878,879,880,881,882,883,884,885,886,887,888,889,890,891,892,893,894,895,896,897,898,899,900,901,902,903,904,905,906,907,908,909,910,911,912,913,914,915,916,917,918,919,920,921,922,923,924,925,926,927,928,929,930,931,932,933,934,935,936,937,938,939,940,941,942,943,944,945,946,947,948,949,950,951,952,953,954,955,956,957,958,959,960,961,962,963,964,965,966,967,968,969,970,971,972,973,974,975,976,977,978,979,980,981,982,983,984,985,986,987,988,989,990,991,992,993,994,995,996,997,998,999,1000,1001,1002,1003,1004,1005,1006,1007,1008,1009,1010,1011,1012,1013,1014,1015,1016,1017,1018,1019,1020,1021,1022,1023,1024,1025,1026,1027,1028,1029,1030,1031,1032,1033,1034,1035,1036,1037,1038,1039,1040,1041,1042,1043,1044,1045,1046,1047,1048,1049,1050,1051,1052,1053,1054,1055,1056,1057,1058,1059,1060,1061,1062,1063,1064,1065,1066,1067,1068,1069,1070,1071,1072,1073,1074,1075,1076,1077,1078,1079,1080,1081,1082,1083,1084,1085,1086,1087,1088,1089,1090,1091,1092,1093,1094,1095,1096,1097,1098,1099,1100,1101,1102,1103,1104,1105,1106,1107,1108,1109,1110,1111,1112,1113,1114,1115,1116,1117,1118,1119,1120,1121,1122,1123,1124,1125,1126,1127,1128,1129,1130,1131,1132,1133,1134,1135,1136,1137,1138,1139,1140,1141,1142,1143,1144,1145,1146,1147,1148,1149,1150,1151,1152,1153,1154,1155,1156,1157,1158,1159,1160,1161,1162,1163,1164,1165,1166,1167,1168,1169,1170,1171,1172,1173,1174,1175,1176,1177,1178,1179,1180,1181,1182,1183,1184,1185,1186,1187,1188,1189,1190,1191,1192,1193,1194,1195,1196,1197,1198,1199,1200,1201,1202,1203,1204,1205,1206,1207,1208,1209,1210,1211,1212,1213,1214,1215,1216,1217,1218,1219,1220,1221,1222,1223,1224,1225,1226,1227,1228,1229,1230,1231,1232,1233,1234,1235,1236,1237,1238,1239,1240,1241,1242,1243,1244,1245,1246,1247,1248,1249,1250,1251,1252,1253,1254,1255,1256,1257,1258,1259,1260,1261,1262,1263,1264,1265,1266,1267,1268,1269,1270,1271,1272,1273,1274,1275,1276,1277,1278,1279,1280,1281,1282,1283,1284,1285,1286,1287,1288,1289,1290,1291,1292,1293,1294,1295,1296,1297,1298,1299,1300,1301,1302,1303,1304,1305,1306,1307,1308,1309,1310,1311,1312,1313,1314,1315,1316,1317,1318,1319,1320,1321,1322,1323,1324,1325,1326,1327,1328,1329,1330,1331,1332,1333,1334,1335,1336,1337,1338,1339,1340,1341,1342,1343,1344,1345,1346,1347,1348,1349,1350,1351,1352,1353,1354,1355,1356,1357,1358,1359,1360,1361,1362,1363,1364,1365,1366,1367,1368,1369,1370,1371,1372,1373,1374,1375,1376,1377,1378,1379,1380,1381,1382,1383,1384,1385,1386,1387,1388,1389,1390,1391,1392,1393,1394,1395,1396,1397,1398,1399,1400,1401,1402,1403,1404,1405,1406,1407,1408,1409,1410,1411,1412,1413,1414,1415,1416,1417,1418,1419,1420,1421,1422,1423,1424,1425,1426,1427,1428,1429,1430,1431,1432,1433,1434,1435,1436,1437,1438,1439,1440,1441,1442,1443,1444,1445,1446,1447,1448,1449,1450,1451,1452,1453,1454,1455,1456,1457,1458,1459,1460,1461,1462,1463,1464,1465,1466,1467,1468,1469,1470,1471,1472,1473,1474,1475,1476,1477,1478,1479,1480,1481,1482,1483,1484,1485,1486,1487,1488,1489,1490,1491,1492,1493,1494,1495,1496,1497,1498,1499,1500],"tree_info":[0,0,0,0,0,0,0,0,0,0,0,0,0,0,0,0,0,0,0,0,0,0,0,0,0,0,0,0,0,0,0,0,0,0,0,0,0,0,0,0,0,0,0,0,0,0,0,0,0,0,0,0,0,0,0,0,0,0,0,0,0,0,0,0,0,0,0,0,0,0,0,0,0,0,0,0,0,0,0,0,0,0,0,0,0,0,0,0,0,0,0,0,0,0,0,0,0,0,0,0,0,0,0,0,0,0,0,0,0,0,0,0,0,0,0,0,0,0,0,0,0,0,0,0,0,0,0,0,0,0,0,0,0,0,0,0,0,0,0,0,0,0,0,0,0,0,0,0,0,0,0,0,0,0,0,0,0,0,0,0,0,0,0,0,0,0,0,0,0,0,0,0,0,0,0,0,0,0,0,0,0,0,0,0,0,0,0,0,0,0,0,0,0,0,0,0,0,0,0,0,0,0,0,0,0,0,0,0,0,0,0,0,0,0,0,0,0,0,0,0,0,0,0,0,0,0,0,0,0,0,0,0,0,0,0,0,0,0,0,0,0,0,0,0,0,0,0,0,0,0,0,0,0,0,0,0,0,0,0,0,0,0,0,0,0,0,0,0,0,0,0,0,0,0,0,0,0,0,0,0,0,0,0,0,0,0,0,0,0,0,0,0,0,0,0,0,0,0,0,0,0,0,0,0,0,0,0,0,0,0,0,0,0,0,0,0,0,0,0,0,0,0,0,0,0,0,0,0,0,0,0,0,0,0,0,0,0,0,0,0,0,0,0,0,0,0,0,0,0,0,0,0,0,0,0,0,0,0,0,0,0,0,0,0,0,0,0,0,0,0,0,0,0,0,0,0,0,0,0,0,0,0,0,0,0,0,0,0,0,0,0,0,0,0,0,0,0,0,0,0,0,0,0,0,0,0,0,0,0,0,0,0,0,0,0,0,0,0,0,0,0,0,0,0,0,0,0,0,0,0,0,0,0,0,0,0,0,0,0,0,0,0,0,0,0,0,0,0,0,0,0,0,0,0,0,0,0,0,0,0,0,0,0,0,0,0,0,0,0,0,0,0,0,0,0,0,0,0,0,0,0,0,0,0,0,0,0,0,0,0,0,0,0,0,0,0,0,0,0,0,0,0,0,0,0,0,0,0,0,0,0,0,0,0,0,0,0,0,0,0,0,0,0,0,0,0,0,0,0,0,0,0,0,0,0,0,0,0,0,0,0,0,0,0,0,0,0,0,0,0,0,0,0,0,0,0,0,0,0,0,0,0,0,0,0,0,0,0,0,0,0,0,0,0,0,0,0,0,0,0,0,0,0,0,0,0,0,0,0,0,0,0,0,0,0,0,0,0,0,0,0,0,0,0,0,0,0,0,0,0,0,0,0,0,0,0,0,0,0,0,0,0,0,0,0,0,0,0,0,0,0,0,0,0,0,0,0,0,0,0,0,0,0,0,0,0,0,0,0,0,0,0,0,0,0,0,0,0,0,0,0,0,0,0,0,0,0,0,0,0,0,0,0,0,0,0,0,0,0,0,0,0,0,0,0,0,0,0,0,0,0,0,0,0,0,0,0,0,0,0,0,0,0,0,0,0,0,0,0,0,0,0,0,0,0,0,0,0,0,0,0,0,0,0,0,0,0,0,0,0,0,0,0,0,0,0,0,0,0,0,0,0,0,0,0,0,0,0,0,0,0,0,0,0,0,0,0,0,0,0,0,0,0,0,0,0,0,0,0,0,0,0,0,0,0,0,0,0,0,0,0,0,0,0,0,0,0,0,0,0,0,0,0,0,0,0,0,0,0,0,0,0,0,0,0,0,0,0,0,0,0,0,0,0,0,0,0,0,0,0,0,0,0,0,0,0,0,0,0,0,0,0,0,0,0,0,0,0,0,0,0,0,0,0,0,0,0,0,0,0,0,0,0,0,0,0,0,0,0,0,0,0,0,0,0,0,0,0,0,0,0,0,0,0,0,0,0,0,0,0,0,0,0,0,0,0,0,0,0,0,0,0,0,0,0,0,0,0,0,0,0,0,0,0,0,0,0,0,0,0,0,0,0,0,0,0,0,0,0,0,0,0,0,0,0,0,0,0,0,0,0,0,0,0,0,0,0,0,0,0,0,0,0,0,0,0,0,0,0,0,0,0,0,0,0,0,0,0,0,0,0,0,0,0,0,0,0,0,0,0,0,0,0,0,0,0,0,0,0,0,0,0,0,0,0,0,0,0,0,0,0,0,0,0,0,0,0,0,0,0,0,0,0,0,0,0,0,0,0,0,0,0,0,0,0,0,0,0,0,0,0,0,0,0,0,0,0,0,0,0,0,0,0,0,0,0,0,0,0,0,0,0,0,0,0,0,0,0,0,0,0,0,0,0,0,0,0,0,0,0,0,0,0,0,0,0,0,0,0,0,0,0,0,0,0,0,0,0,0,0,0,0,0,0,0,0,0,0,0,0,0,0,0,0,0,0,0,0,0,0,0,0,0,0,0,0,0,0,0,0,0,0,0,0,0,0,0,0,0,0,0,0,0,0,0,0,0,0,0,0,0,0,0,0,0,0,0,0,0,0,0,0,0,0,0,0,0,0,0,0,0,0,0,0,0,0,0,0,0,0,0,0,0,0,0,0,0,0,0,0,0,0,0,0,0,0,0,0,0,0,0,0,0,0,0,0,0,0,0,0,0,0,0,0,0,0,0,0,0,0,0,0,0,0,0,0,0,0,0,0,0,0,0,0,0,0,0,0,0,0,0,0,0,0,0,0,0,0,0,0,0,0,0,0,0,0,0,0,0,0,0,0,0,0,0,0,0,0,0,0,0,0,0,0,0,0,0,0,0,0,0,0,0,0,0,0,0,0,0,0,0,0,0,0,0,0,0,0,0,0,0,0,0,0,0,0,0,0,0,0,0,0,0,0,0,0,0,0,0,0,0,0,0,0,0,0,0,0,0,0,0,0,0,0,0,0,0,0,0,0,0,0,0,0,0,0,0,0,0,0,0,0,0,0,0,0,0,0,0,0,0,0,0,0,0,0,0,0,0,0,0,0,0,0,0,0,0,0,0,0,0,0,0,0,0,0,0,0,0,0,0,0,0,0,0,0,0,0,0,0,0,0,0,0,0,0,0,0,0,0,0,0,0,0,0,0,0,0,0,0,0,0,0,0,0,0,0,0,0,0,0,0,0,0,0,0,0,0,0,0,0,0,0,0,0,0,0,0,0,0,0,0,0,0,0,0,0,0,0,0,0,0,0,0,0,0,0,0,0,0,0,0,0,0,0,0,0,0,0,0,0,0,0,0,0,0,0,0,0,0,0,0,0,0,0,0,0,0,0,0,0,0,0,0,0,0,0,0,0,0,0,0,0,0,0,0,0,0,0,0],"trees":[{"base_weights":[2.6782885E-1,-3.6198486E1,5.3986286E1,-1.474969E1,-5.4121887E1,3.5310635E1,8.449137E1,4.0903164E1,-1.9944412E1,-6.4100334E1,-3.1374586E1,4.856302E1,1.4496988E1,1.0170752E2,5.8906975E1,5.056649E0,1.9621607E0,-2.9760208E0,1.5043878E-3,-1.0829804E0,-4.640883E0,-2.9736493E0,-1.5375456E0,2.4912255E0,4.3300934E0,1.7913194E0,1.1314871E-1,6.170939E0,7.975646E0,3.2529633E0,5.0067205E0],"categories":[],"categories_nodes":[],"categories_segments":[],"categories_sizes":[],"default_left":[0,0,0,0,0,0,0,0,0,0,0,0,0,0,0,0,0,0,0,0,0,0,0,0,0,0,0,0,0,0,0],"id":0,"left_children":[1,3,5,7,9,11,13,15,17,19,21,23,25,27,29,-1,-1,-1,-1,-1,-1,-1,-1,-1,-1,-1,-1,-1,-1,-1,-1],"loss_changes":[2.7463972E7,3.20962E6,3.226657E6,1.100267E6,1.030532E6,9.69667E5,9.41888E5,1.2906269E5,1.5677564E6,3.36841E5,1.4422325E5,3.684925E5,1.9571488E5,2.02923E5,1.3287575E5,0E0,0E0,0E0,0E0,0E0,0E0,0E0,0E0,0E0,0E0,0E0,0E0,0E0,0E0,0E0,0E0],"parents":[2147483647,0,0,1,1,2,2,3,3,4,4,5,5,6,6,7,7,8,8,9,9,10,10,11,11,12,12,13,13,14,14],"right_children":[2,4,6,8,10,12,14,16,18,20,22,24,26,28,30,-1,-1,-1,-1,-1,-1,-1,-1,-1,-1,-1,-1,-1,-1,-1,-1],"split_conditions":[8.702E3,6.052526E3,1.4982E4,1.3166102E4,4.867E3,4.686767E3,4.176595E3,-5E-1,5.155E3,1.6775656E4,6.162E3,1.1258E4,7.528965E3,1.9318E4,1.8298E4,5.056649E0,1.9621607E0,-2.9760208E0,1.5043878E-3,-1.0829804E0,-4.640883E0,-2.9736493E0,-1.5375456E0,2.4912255E0,4.3300934E0,1.7913194E0,1.1314871E-1,6.170939E0,7.975646E0,3.2529633E0,5.0067205E0],"split_indices":[10,17,10,19,10,17,17,20,10,19,10,10,17,10,10,0,0,0,0,0,0,0,0,0,0,0,0,0,0,0,0],"split_type":[0,0,0,0,0,0,0,0,0,0,0,0,0,0,0,0,0,0,0,0,0,0,0,0,0,0,0,0,0,0,0],"sum_hessian":[1.4018E4,8.35E3,5.668E3,3.802E3,4.548E3,3.517E3,2.151E3,3.24E2,3.478E3,3.16E3,1.388E3,2.148E3,1.369E3,1.284E3,8.67E2,9.3E1,2.31E2,1.632E3,1.846E3,1.37E2,3.023E3,6.35E2,7.53E2,1.089E3,1.059E3,7.35E2,6.34E2,6.13E2,6.71E2,4.39E2,4.28E2],"tree_param":{"num_deleted":"0","num_feature":"29","num_nodes":"31","size_leaf_vector":"1"}},{"base_weights":[-8.650221E-2,3.4579792E1,-2.451286E1,1.227736E1,6.556002E1,-4.918052E1,-2.9202898E0,2.5862429E1,-2.6053738E1,5.1815197E1,9.460241E1,7.292464E0,-5.2683887E1,-1.8043367E1,2.0420874E1,3.1143317E0,7.5589687E-1,-3.375952E0,-1.1379368E0,4.578739E0,2.206964E0,7.678044E0,5.493484E0,2.8456573E0,-6.682283E-1,-2.6336663E0,-4.1561985E0,-5.0773996E-1,-2.8574455E0,2.811987E0,-1.1245416E0],"categories":[],"categories_nodes":[],"categories_segments":[],"categories_sizes":[],"default_left":[0,0,0,0,0,0,0,0,0,0,0,0,0,0,0,0,0,0,0,0,0,0,0,0,0,0,0,0,0,0,0],"id":1,"left_children":[1,3,5,7,9,11,13,15,17,19,21,23,25,27,29,-1,-1,-1,-1,-1,-1,-1,-1,-1,-1,-1,-1,-1,-1,-1,-1],"loss_changes":[1.1918307E7,4.01905E6,4.3978485E6,1.7628261E6,9.67106E5,7.62883E5,1.5549374E6,7.007654E5,1.9169988E5,4.54404E5,1.813405E5,1.273397E5,3.63415E5,6.566345E5,1.248737E6,0E0,0E0,0E0,0E0,0E0,0E0,0E0,0E0,0E0,0E0,0E0,0E0,0E0,0E0,0E0,0E0],"parents":[2147483647,0,0,1,1,2,2,3,3,4,4,5,5,6,6,7,7,8,8,9,9,10,10,11,11,12,12,13,13,14,14],"right_children":[2,4,6,8,10,12,14,16,18,20,22,24,26,28,30,-1,-1,-1,-1,-1,-1,-1,-1,-1,-1,-1,-1,-1,-1,-1,-1],"split_conditions":[4.350548E3,-1.3301471E-1,2.183E3,6.057E3,2.12E2,1.5739928E4,3.2336756E4,1.611808E3,2.166E3,2.578067E3,1.248107E3,-5E-1,4.432079E3,8.092201E3,9.993334E3,3.1143317E0,7.5589687E-1,-3.375952E0,-1.1379368E0,4.578739E0,2.206964E0,7.678044E0,5.493484E0,2.8456573E0,-6.682283E-1,-2.6336663E0,-4.1561985E0,-5.0773996E-1,-2.8574455E0,2.811987E0,-1.1245416E0],"split_indices":[17,25,9,16,26,19,19,18,9,18,18,20,18,17,17,0,0,0,0,0,0,0,0,0,0,0,0,0,0,0,0],"split_type":[0,0,0,0,0,0,0,0,0,0,0,0,0,0,0,0,0,0,0,0,0,0,0,0,0,0,0,0,0,0,0],"sum_hessian":[1.4073E4,5.817E3,8.256E3,3.383E3,2.434E3,3.853E3,4.403E3,2.498E3,8.85E2,1.654E3,7.8E2,2.25E2,3.628E3,2.672E3,1.731E3,1.116E3,1.382E3,2.7E2,6.15E2,9.89E2,6.65E2,4E2,3.8E2,7.5E1,1.5E2,1.118E3,2.51E3,1.814E3,8.58E2,1.123E3,6.08E2],"tree_param":{"num_deleted":"0","num_feature":"29","num_nodes":"31","size_leaf_vector":"1"}},{"base_weights":[3.08835E-2,-3.3153732E1,4.5717472E1,-1.5046425E1,-4.7665195E1,2.9507547E1,7.455094E1,2.9665363E1,-2.0613304E1,-5.5980175E1,-2.7798431E1,3.7620586E1,2.999099E0,9.0300766E1,5.3926636E1,4.3996763E0,1.2875407E0,-2.948656E0,-3.0296347E-1,-6.16255E-1,-4.0846195E0,-1.4293305E0,-2.7683818E0,1.8526627E0,3.5530665E0,-6.5369713E-1,8.979672E-1,5.537743E0,7.108221E0,2.9048202E0,4.4809766E0],"categories":[],"categories_nodes":[],"categories_segments":[],"categories_sizes":[],"default_left":[0,0,0,0,0,0,0,0,0,0,0,0,0,0,0,0,0,0,0,0,0,0,0,0,0,0,0,0,0,0,0],"id":2,"left_children":[1,3,5,7,9,11,13,15,17,19,21,23,25,27,29,-1,-1,-1,-1,-1,-1,-1,-1,-1,-1,-1,-1,-1,-1,-1,-1],"loss_changes":[2.122377E7,2.13003E6,2.750716E6,8.989098E5,7.41972E5,8.111085E5,6.83442E5,1.4847634E5,1.1242855E6,3.5437E5,1.1451269E5,4.2185025E5,1.0744078E5,1.42969E5,1.126895E5,0E0,0E0,0E0,0E0,0E0,0E0,0E0,0E0,0E0,0E0,0E0,0E0,0E0,0E0,0E0,0E0],"parents":[2147483647,0,0,1,1,2,2,3,3,4,4,5,5,6,6,7,7,8,8,9,9,10,10,11,11,12,12,13,13,14,14],"right_children":[2,4,6,8,10,12,14,16,18,20,22,24,26,28,30,-1,-1,-1,-1,-1,-1,-1,-1,-1,-1,-1,-1,-1,-1,-1,-1],"split_conditions":[8.387E3,6.052526E3,1.4982E4,1.4699986E4,4.867E3,6.840759E3,3.934688E3,-5E-1,4.778E3,1.6775656E4,6.193461E3,1.1258E4,1.0763E4,1.9548E4,1.8013E4,4.3996763E0,1.2875407E0,-2.948656E0,-3.0296347E-1,-6.16255E-1,-4.0846195E0,-1.4293305E0,-2.7683818E0,1.8526627E0,3.5530665E0,-6.5369713E-1,8.979672E-1,5.537743E0,7.108221E0,2.9048202E0,4.4809766E0],"split_indices":[10,17,10,19,10,17,17,20,10,19,18,10,10,10,10,0,0,0,0,0,0,0,0,0,0,0,0,0,0,0,0],"split_type":[0,0,0,0,0,0,0,0,0,0,0,0,0,0,0,0,0,0,0,0,0,0,0,0,0,0,0,0,0,0,0],"sum_hessian":[1.3997E4,8.108E3,5.889E3,3.608E3,4.5E3,3.771E3,2.118E3,3.99E2,3.209E3,3.171E3,1.329E3,2.887E3,8.84E2,1.199E3,9.19E2,1E2,2.99E2,1.382E3,1.827E3,1.52E2,3.019E3,8.18E2,5.11E2,1.563E3,1.324E3,3.92E2,4.92E2,6.05E2,5.94E2,4.14E2,5.05E2],"tree_param":{"num_deleted":"0","num_feature":"29","num_nodes":"31","size_leaf_vector":"1"}},{"base_weights":[-6.845164E-2,3.0382061E1,-2.1194153E1,4.4243565E1,-9.870685E0,-4.2670826E1,-2.399699E0,2.5129435E1,6.897507E1,-2.1034836E1,9.747462E0,2.0627162E0,-4.6089497E1,-1.503723E1,1.7094809E1,3.7823904E0,1.1314998E0,4.170735E0,6.251377E0,-1.599492E-1,-2.135776E0,4.5180494E-1,3.8713834E0,-1.7780371E0,1.5492669E0,-1.8760687E0,-3.5493307E0,-3.098391E-1,-2.190616E0,2.5135474E0,-8.6873776E-1],"categories":[],"categories_nodes":[],"categories_segments":[],"categories_sizes":[],"default_left":[0,0,0,0,0,0,0,0,0,0,0,0,0,0,0,0,0,0,0,0,0,0,0,0,0,0,0,0,0,0,0],"id":3,"left_children":[1,3,5,7,9,11,13,15,17,19,21,23,25,27,29,-1,-1,-1,-1,-1,-1,-1,-1,-1,-1,-1,-1,-1,-1,-1,-1],"loss_changes":[9.044636E6,3.213749E6,3.3505325E6,2.0234035E6,3.234786E5,5.92544E5,1.0911499E6,6.257149E5,3.5121E5,1.6712516E5,8.005709E4,1.5268733E5,3.190255E5,4.63383E5,9.6740325E5,0E0,0E0,0E0,0E0,0E0,0E0,0E0,0E0,0E0,0E0,0E0,0E0,0E0,0E0,0E0,0E0],"parents":[2147483647,0,0,1,1,2,2,3,3,4,4,5,5,6,6,7,7,8,8,9,9,10,10,11,11,12,12,13,13,14,14],"right_children":[2,4,6,8,10,12,14,16,18,20,22,24,26,28,30,-1,-1,-1,-1,-1,-1,-1,-1,-1,-1,-1,-1,-1,-1,-1,-1],"split_conditions":[4.313911E3,4.46E3,2.183E3,2.546435E4,1.27E2,1.6530723E4,3.2336756E4,1.041053E3,2.19E2,1.503513E3,3.417494E4,0E0,2.48E1,7.461287E3,9.654798E3,3.7823904E0,1.1314998E0,4.170735E0,6.251377E0,-1.599492E-1,-2.135776E0,4.5180494E-1,3.8713834E0,-1.7780371E0,1.5492669E0,-1.8760687E0,-3.5493307E0,-3.098391E-1,-2.190616E0,2.5135474E0,-8.6873776E-1],"split_indices":[17,16,9,19,26,19,19,18,26,18,19,22,2,17,17,0,0,0,0,0,0,0,0,0,0,0,0,0,0,0,0],"split_type":[0,0,0,0,0,0,0,0,0,0,0,0,0,0,0,0,0,0,0,0,0,0,0,0,0,0,0,0,0,0,0],"sum_hessian":[1.4058E4,5.758E3,8.3E3,4.283E3,1.475E3,3.873E3,4.427E3,2.417E3,1.866E3,9.4E2,5.35E2,2.75E2,3.598E3,2.686E3,1.741E3,5.71E2,1.846E3,1.279E3,5.87E2,3.16E2,6.24E2,5E2,3.5E1,1.16E2,1.59E2,6.96E2,2.902E3,1.626E3,1.06E3,1.063E3,6.78E2],"tree_param":{"num_deleted":"0","num_feature":"29","num_nodes":"31","size_leaf_vector":"1"}},{"base_weights":[-1.7263623E-1,-3.0900803E1,3.859208E1,-1.5931341E1,-4.3262093E1,2.4323057E1,6.598897E1,2.5860847E1,-2.1236807E1,-5.160993E1,-2.8197863E1,3.1271164E1,2.0052023E0,8.031109E1,4.918559E1,4.1724033E0,1.058362E0,-2.729058E0,-4.9940538E-1,-1.8146418E0,-3.8034017E0,-2.3628151E0,-1.3003765E0,1.4468131E0,2.9739351E0,-7.0874226E-1,7.750299E-1,4.9540725E0,6.2996373E0,2.6740153E0,4.0814314E0],"categories":[],"categories_nodes":[],"categories_segments":[],"categories_sizes":[],"default_left":[0,0,0,0,0,0,0,0,0,0,0,0,0,0,0,0,0,0,0,0,0,0,0,0,0,0,0,0,0,0,0],"id":4,"left_children":[1,3,5,7,9,11,13,15,17,19,21,23,25,27,29,-1,-1,-1,-1,-1,-1,-1,-1,-1,-1,-1,-1,-1,-1,-1,-1],"loss_changes":[1.6696612E7,1.446152E6,2.421358E6,7.850191E5,5.370225E5,6.3214475E5,5.0673E5,1.437225E5,7.857095E5,1.913145E5,8.1113875E4,3.6875425E5,1.0668209E5,9.93E4,9.58605E4,0E0,0E0,0E0,0E0,0E0,0E0,0E0,0E0,0E0,0E0,0E0,0E0,0E0,0E0,0E0,0E0],"parents":[2147483647,0,0,1,1,2,2,3,3,4,4,5,5,6,6,7,7,8,8,9,9,10,10,11,11,12,12,13,13,14,14],"right_children":[2,4,6,8,10,12,14,16,18,20,22,24,26,28,30,-1,-1,-1,-1,-1,-1,-1,-1,-1,-1,-1,-1,-1,-1,-1,-1],"split_conditions":[7.985E3,6.279693E3,1.4982E4,1.4699986E4,4.346E3,6.780885E3,3.746764E3,-5E-1,4.636E3,1.9404742E4,6.162E3,1.0679E4,1.0397E4,1.9745E4,1.8013E4,4.1724033E0,1.058362E0,-2.729058E0,-4.9940538E-1,-1.8146418E0,-3.8034017E0,-2.3628151E0,-1.3003765E0,1.4468131E0,2.9739351E0,-7.0874226E-1,7.750299E-1,4.9540725E0,6.2996373E0,2.6740153E0,4.0814314E0],"split_indices":[10,17,10,19,10,17,17,20,10,19,10,10,10,10,10,0,0,0,0,0,0,0,0,0,0,0,0,0,0,0,0],"split_type":[0,0,0,0,0,0,0,0,0,0,0,0,0,0,0,0,0,0,0,0,0,0,0,0,0,0,0,0,0,0,0],"sum_hessian":[1.4015E4,7.818E3,6.197E3,3.537E3,4.281E3,4.076E3,2.121E3,3.98E2,3.139E3,2.753E3,1.528E3,3.108E3,9.68E2,1.143E3,9.78E2,9.5E1,3.03E2,1.389E3,1.75E3,2.65E2,2.488E3,9.67E2,5.61E2,1.599E3,1.509E3,4.14E2,5.54E2,5.8E2,5.63E2,4.46E2,5.32E2],"tree_param":{"num_deleted":"0","num_feature":"29","num_nodes":"31","size_leaf_vector":"1"}},{"base_weights":[1.8485361E-1,-2.8327553E1,3.630512E1,-1.5755702E1,-4.0850853E1,2.0405846E1,5.7068523E1,2.3475273E1,-2.0685915E1,-4.8890877E1,-2.7253468E1,2.9813967E1,2.5684667E0,6.7290535E1,3.6595192E1,2.9286385E0,8.3088255E-1,-2.73206E0,-5.671634E-1,-2.2911546E0,-3.6303294E0,-1.3527652E0,-2.5162845E0,1.4256012E0,2.6731007E0,5.1715034E-1,-8.6457926E-1,4.128401E0,5.659641E0,3.154457E0,1.6743963E0],"categories":[],"categories_nodes":[],"categories_segments":[],"categories_sizes":[],"default_left":[0,0,0,0,0,0,0,0,0,0,0,0,0,0,0,0,0,0,0,0,0,0,0,0,0,0,0,0,0,0,0],"id":5,"left_children":[1,3,5,7,9,11,13,15,17,19,21,23,25,27,29,-1,-1,-1,-1,-1,-1,-1,-1,-1,-1,-1,-1,-1,-1,-1,-1],"loss_changes":[1.4532574E7,1.240936E6,2.053851E6,7.6196844E5,4.30494E5,5.9181075E5,5.6238E5,9.3269266E4,8.071166E5,1.17417E5,1.00622875E5,1.8189112E5,8.774149E4,1.98053E5,9.563475E4,0E0,0E0,0E0,0E0,0E0,0E0,0E0,0E0,0E0,0E0,0E0,0E0,0E0,0E0,0E0,0E0],"parents":[2147483647,0,0,1,1,2,2,3,3,4,4,5,5,6,6,7,7,8,8,9,9,10,10,11,11,12,12,13,13,14,14],"right_children":[2,4,6,8,10,12,14,16,18,20,22,24,26,28,30,-1,-1,-1,-1,-1,-1,-1,-1,-1,-1,-1,-1,-1,-1,-1,-1],"split_conditions":[8.054E3,6.840759E3,1.3645E4,1.4699986E4,4.233E3,3.348057E3,5.077619E3,7.594558E3,4.346E3,2.1103621E4,6.111482E3,1.0176E4,6.193461E3,1.9745E4,7.73526E3,2.9286385E0,8.3088255E-1,-2.73206E0,-5.671634E-1,-2.2911546E0,-3.6303294E0,-1.3527652E0,-2.5162845E0,1.4256012E0,2.6731007E0,5.1715034E-1,-8.6457926E-1,4.128401E0,5.659641E0,3.154457E0,1.6743963E0],"split_indices":[10,17,10,19,10,18,17,19,10,19,18,10,18,10,17,0,0,0,0,0,0,0,0,0,0,0,0,0,0,0,0],"split_type":[0,0,0,0,0,0,0,0,0,0,0,0,0,0,0,0,0,0,0,0,0,0,0,0,0,0,0,0,0,0,0],"sum_hessian":[1.4109E4,7.885E3,6.224E3,3.936E3,3.949E3,3.526E3,2.698E3,4.39E2,3.497E3,2.48E3,1.469E3,2.308E3,1.218E3,1.798E3,9E2,1.69E2,2.7E2,1.422E3,2.075E3,3.87E2,2.093E3,7.7E2,6.99E2,1.086E3,1.222E3,9.21E2,2.97E2,1.118E3,6.8E2,5.38E2,3.62E2],"tree_param":{"num_deleted":"0","num_feature":"29","num_nodes":"31","size_leaf_vector":"1"}},{"base_weights":[-9.56523E-2,-2.4596209E1,3.651952E1,-3.3012062E1,-3.5145512E0,2.5084352E1,5.879825E1,2.4760925E1,-3.692648E1,7.738124E0,-1.4512816E1,3.7518974E1,1.3617541E1,7.615639E1,4.7640057E1,3.9509678E0,1.1097637E0,-3.1628678E0,-1.9109191E0,1.1258825E0,9.748503E-2,-8.1485355E-1,-2.1823401E0,1.984124E0,3.337189E0,1.3831773E0,-1.867239E-2,4.742137E0,6.004024E0,3.7856457E0,2.287465E0],"categories":[],"categories_nodes":[],"categories_segments":[],"categories_sizes":[],"default_left":[0,0,0,0,0,0,0,0,0,0,0,0,0,0,0,0,0,0,0,0,0,0,0,0,0,0,0,0,0,0,0],"id":6,"left_children":[1,3,5,7,9,11,13,15,17,19,21,23,25,27,29,-1,-1,-1,-1,-1,-1,-1,-1,-1,-1,-1,-1,-1,-1,-1,-1],"loss_changes":[1.2526996E7,1.48418E6,1.424676E6,1.353051E6,2.95651E5,5.271975E5,3.639855E5,1.0633736E5,4.439585E5,6.2521797E4,5.7449547E4,1.6401925E5,1.6433844E5,5.41205E4,1.0982175E5,0E0,0E0,0E0,0E0,0E0,0E0,0E0,0E0,0E0,0E0,0E0,0E0,0E0,0E0,0E0,0E0],"parents":[2147483647,0,0,1,1,2,2,3,3,4,4,5,5,6,6,7,7,8,8,9,9,10,10,11,11,12,12,13,13,14,14],"right_children":[2,4,6,8,10,12,14,16,18,20,22,24,26,28,30,-1,-1,-1,-1,-1,-1,-1,-1,-1,-1,-1,-1,-1,-1,-1,-1],"split_conditions":[8.702E3,5.823E3,1.5538E4,1.3166102E4,2.5873191E4,2.153057E3,1.772627E3,-7.0710677E-1,3.583E3,1.931096E3,7.713766E3,1.151E4,7.840023E3,2.24E2,6.388632E3,3.9509678E0,1.1097637E0,-3.1628678E0,-1.9109191E0,1.1258825E0,9.748503E-2,-8.1485355E-1,-2.1823401E0,1.984124E0,3.337189E0,1.3831773E0,-1.867239E-2,4.742137E0,6.004024E0,3.7856457E0,2.287465E0],"split_indices":[10,10,10,19,19,18,18,20,10,18,18,10,17,26,17,0,0,0,0,0,0,0,0,0,0,0,0,0,0,0,0],"split_type":[0,0,0,0,0,0,0,0,0,0,0,0,0,0,0,0,0,0,0,0,0,0,0,0,0,0,0,0,0,0,0],"sum_hessian":[1.3962E4,8.365E3,5.597E3,5.978E3,2.387E3,3.7E3,1.897E3,3.79E2,5.599E3,1.18E3,1.207E3,1.774E3,1.926E3,7.4E2,1.157E3,8.2E1,2.97E2,3.012E3,2.587E3,5.09E2,6.71E2,1.031E3,1.76E2,9.34E2,8.4E2,1.335E3,5.91E2,3.99E2,3.41E2,8.07E2,3.5E2],"tree_param":{"num_deleted":"0","num_feature":"29","num_nodes":"31","size_leaf_vector":"1"}},{"base_weights":[-3.4820464E-2,-2.5953428E1,3.0396084E1,-3.349878E0,-3.2099213E1,1.3362427E1,4.60886E1,2.519844E1,-1.1218786E1,-4.3720303E1,-1.8912174E1,2.6158686E1,3.1072497E0,5.516529E1,2.7135887E1,3.3192613E0,1.0865175E0,-1.3015999E0,5.2765423E-1,-3.486928E0,-2.582649E0,-1.734717E0,-6.198783E-1,1.2959778E0,2.457883E0,5.741488E-1,-8.0412424E-1,3.2811868E0,4.7514997E0,1.2808844E0,2.781199E0],"categories":[],"categories_nodes":[],"categories_segments":[],"categories_sizes":[],"default_left":[0,0,0,0,0,0,0,0,0,0,0,0,0,0,0,0,0,0,0,0,0,0,0,0,0,0,0,0,0,0,0],"id":7,"left_children":[1,3,5,7,9,11,13,15,17,19,21,23,25,27,29,-1,-1,-1,-1,-1,-1,-1,-1,-1,-1,-1,-1,-1,-1,-1,-1],"loss_changes":[1.1080821E7,1.0538525E6,1.7266825E6,3.6487994E5,9.13295E5,4.0672488E5,5.77032E5,7.473314E4,1.7624711E5,1.299895E5,1.6482312E5,9.374225E4,1.28139305E5,2.3641E5,1.207155E5,0E0,0E0,0E0,0E0,0E0,0E0,0E0,0E0,0E0,0E0,0E0,0E0,0E0,0E0,0E0,0E0],"parents":[2147483647,0,0,1,1,2,2,3,3,4,4,5,5,6,6,7,7,8,8,9,9,10,10,11,11,12,12,13,13,14,14],"right_children":[2,4,6,8,10,12,14,16,18,20,22,24,26,28,30,-1,-1,-1,-1,-1,-1,-1,-1,-1,-1,-1,-1,-1,-1,-1,-1],"split_conditions":[7.654E3,1.964409E4,1.216E4,1.1441897E4,4.233E3,2.576456E4,5.249419E3,-5E-1,5.045E3,2.924E3,6.162E3,9.565E3,3.221759E4,1.8538E4,1.6692E4,3.3192613E0,1.0865175E0,-1.3015999E0,5.2765423E-1,-3.486928E0,-2.582649E0,-1.734717E0,-6.198783E-1,1.2959778E0,2.457883E0,5.741488E-1,-8.0412424E-1,3.2811868E0,4.7514997E0,1.2808844E0,2.781199E0],"split_indices":[10,19,10,19,10,19,17,20,10,10,10,10,19,10,10,0,0,0,0,0,0,0,0,0,0,0,0,0,0,0,0],"split_type":[0,0,0,0,0,0,0,0,0,0,0,0,0,0,0,0,0,0,0,0,0,0,0,0,0,0,0,0,0,0,0],"sum_hessian":[1.4047E4,7.586E3,6.461E3,1.622E3,5.964E3,3.099E3,3.362E3,3.5E2,1.272E3,3.169E3,2.795E3,1.378E3,1.721E3,2.272E3,1.09E3,1.05E2,2.45E2,9.13E2,3.59E2,1.671E3,1.498E3,1.764E3,1.031E3,7.45E2,6.33E2,1.276E3,4.45E2,1.378E3,8.94E2,6.42E2,4.48E2],"tree_param":{"num_deleted":"0","num_feature":"29","num_nodes":"31","size_leaf_vector":"1"}},{"base_weights":[-8.5668854E-2,-2.0531393E1,3.274061E1,-2.87235E1,-3.5432994E0,2.2020182E1,5.013947E1,1.3997976E1,-3.3065235E1,6.514771E0,-1.4202123E1,3.325683E1,1.16511345E1,6.332049E1,3.8205708E1,2.8843367E0,3.363196E-1,-2.8833132E0,-1.7713898E0,1.0544668E0,9.088818E-2,-7.344542E-1,-1.8809496E0,2.669623E0,1.2719079E0,1.243218E0,6.659721E-2,4.0500274E0,5.2821803E0,2.2484868E0,3.6744578E0],"categories":[],"categories_nodes":[],"categories_segments":[],"categories_sizes":[],"default_left":[0,0,0,0,0,0,0,0,0,0,0,0,0,0,0,0,0,0,0,0,0,0,0,0,0,0,0,0,0,0,0],"id":8,"left_children":[1,3,5,7,9,11,13,15,17,19,21,23,25,27,29,-1,-1,-1,-1,-1,-1,-1,-1,-1,-1,-1,-1,-1,-1,-1,-1],"loss_changes":[9.420361E6,1.2035645E6,1.0036955E6,1.0827695E6,3.0188084E5,3.8818388E5,3.20515E5,1.346182E5,3.329165E5,6.4598363E4,6.3965906E4,1.17119E5,1.1345839E5,6.02245E4,9.2193125E4,0E0,0E0,0E0,0E0,0E0,0E0,0E0,0E0,0E0,0E0,0E0,0E0,0E0,0E0,0E0,0E0],"parents":[2147483647,0,0,1,1,2,2,3,3,4,4,5,5,6,6,7,7,8,8,9,9,10,10,11,11,12,12,13,13,14,14],"right_children":[2,4,6,8,10,12,14,16,18,20,22,24,26,28,30,-1,-1,-1,-1,-1,-1,-1,-1,-1,-1,-1,-1,-1,-1,-1,-1],"split_conditions":[8.915E3,5.608E3,1.513E4,1.5382451E4,2.6196621E4,2.153057E3,2.131347E3,-5E-1,3.333E3,2.0550943E4,6.777857E3,3.277E3,3.2684578E4,2.1225E4,2.0652E4,2.8843367E0,3.363196E-1,-2.8833132E0,-1.7713898E0,1.0544668E0,9.088818E-2,-7.344542E-1,-1.8809496E0,2.669623E0,1.2719079E0,1.243218E0,6.659721E-2,4.0500274E0,5.2821803E0,2.2484868E0,3.6744578E0],"split_indices":[10,10,10,19,19,18,18,20,10,19,18,16,19,10,10,0,0,0,0,0,0,0,0,0,0,0,0,0,0,0,0],"split_type":[0,0,0,0,0,0,0,0,0,0,0,0,0,0,0,0,0,0,0,0,0,0,0,0,0,0,0,0,0,0,0],"sum_hessian":[1.4034E4,8.648E3,5.386E3,5.834E3,2.814E3,3.334E3,2.052E3,5.38E2,5.296E3,1.448E3,1.366E3,1.599E3,1.735E3,9.73E2,1.079E3,1.35E2,4.03E2,2.585E3,2.711E3,5.48E2,9E2,1.058E3,3.08E2,1.207E3,3.92E2,1.104E3,6.31E2,6.75E2,2.98E2,7.59E2,3.2E2],"tree_param":{"num_deleted":"0","num_feature":"29","num_nodes":"31","size_leaf_vector":"1"}},{"base_weights":[-5.4625865E-2,-2.2050486E1,2.6339722E1,-1.0905826E1,-3.1168415E1,1.3514641E1,4.241055E1,1.792325E1,-1.5086446E1,-3.6567417E1,-2.0546408E1,2.0321838E1,-9.393138E-1,5.2943657E1,3.0048891E1,-1.6799079E0,1.6826593E0,-2.3785436E0,-5.508901E-1,-1.9387336E0,-2.7877429E0,-1.0618408E0,-2.0356684E0,1.7209162E0,6.663943E-1,-5.260978E-1,4.6634606E-1,3.1771126E0,4.4086027E0,1.6541008E0,2.9167893E0],"categories":[],"categories_nodes":[],"categories_segments":[],"categories_sizes":[],"default_left":[0,0,0,0,0,0,0,0,0,0,0,0,0,0,0,0,0,0,0,0,0,0,0,0,0,0,0,0,0,0,0],"id":9,"left_children":[1,3,5,7,9,11,13,15,17,19,21,23,25,27,29,-1,-1,-1,-1,-1,-1,-1,-1,-1,-1,-1,-1,-1,-1,-1,-1],"loss_changes":[8.130831E6,7.7590575E5,1.311521E6,4.147504E5,2.4016825E5,3.4852E5,3.662415E5,1.1234183E5,4.0930106E5,7.934775E4,6.4634062E4,1.1064225E5,5.678829E4,1.127185E5,9.61235E4,0E0,0E0,0E0,0E0,0E0,0E0,0E0,0E0,0E0,0E0,0E0,0E0,0E0,0E0,0E0,0E0],"parents":[2147483647,0,0,1,1,2,2,3,3,4,4,5,5,6,6,7,7,8,8,9,9,10,10,11,11,12,12,13,13,14,14],"right_children":[2,4,6,8,10,12,14,16,18,20,22,24,26,28,30,-1,-1,-1,-1,-1,-1,-1,-1,-1,-1,-1,-1,-1,-1,-1,-1],"split_conditions":[7.785E3,6.279693E3,1.3164E4,3.16E2,4.428E3,3.502558E3,3.746764E3,-7.818315E-1,3.659E3,4.285578E3,6.451626E3,2.993E3,1.0176E4,1.9079E4,1.8538E4,-1.6799079E0,1.6826593E0,-2.3785436E0,-5.508901E-1,-1.9387336E0,-2.7877429E0,-1.0618408E0,-2.0356684E0,1.7209162E0,6.663943E-1,-5.260978E-1,4.6634606E-1,3.1771126E0,4.4086027E0,1.6541008E0,2.9167893E0],"split_indices":[10,17,10,9,10,18,17,22,10,18,18,16,10,10,10,0,0,0,0,0,0,0,0,0,0,0,0,0,0,0,0],"split_type":[0,0,0,0,0,0,0,0,0,0,0,0,0,0,0,0,0,0,0,0,0,0,0,0,0,0,0,0,0,0,0],"sum_hessian":[1.4003E4,7.638E3,6.365E3,3.438E3,4.2E3,3.541E3,2.824E3,4.35E2,3.003E3,2.783E3,1.417E3,2.407E3,1.134E3,1.523E3,1.301E3,5.5E1,3.8E2,8.29E2,2.174E3,7.5E2,2.033E3,8.71E2,5.46E2,1.725E3,6.82E2,6.08E2,5.26E2,8.72E2,6.51E2,8.4E2,4.61E2],"tree_param":{"num_deleted":"0","num_feature":"29","num_nodes":"31","size_leaf_vector":"1"}},{"base_weights":[3.7898147E-3,-1.7420134E1,2.903258E1,-2.4674269E1,-1.1665574E0,2.102985E1,4.571375E1,5.551856E0,-2.9313509E1,7.224633E0,-1.183307E1,3.0649658E1,1.1021558E1,6.028766E1,3.6571793E1,3.0618103E0,-2.1711364E-2,-2.6532247E0,-1.5975266E0,1.0773882E0,1.1017776E-1,-6.019478E-1,-1.5360771E0,1.6191279E0,2.7086399E0,1.1397147E0,7.3022835E-2,3.7622805E0,4.693564E0,2.9789553E0,1.9310213E0],"categories":[],"categories_nodes":[],"categories_segments":[],"categories_sizes":[],"default_left":[0,0,0,0,0,0,0,0,0,0,0,0,0,0,0,0,0,0,0,0,0,0,0,0,0,0,0,0,0,0,0],"id":10,"left_children":[1,3,5,7,9,11,13,15,17,19,21,23,25,27,29,-1,-1,-1,-1,-1,-1,-1,-1,-1,-1,-1,-1,-1,-1,-1,-1],"loss_changes":[7.065963E6,1.029287E6,6.98551E5,8.4656875E5,2.4130081E5,3.4077425E5,2.240255E5,1.7999781E5,2.909355E5,6.961124E4,3.8622047E4,1.0835625E5,9.120536E4,2.5282E4,5.5076375E4,0E0,0E0,0E0,0E0,0E0,0E0,0E0,0E0,0E0,0E0,0E0,0E0,0E0,0E0,0E0,0E0],"parents":[2147483647,0,0,1,1,2,2,3,3,4,4,5,5,6,6,7,7,8,8,9,9,10,10,11,11,12,12,13,13,14,14],"right_children":[2,4,6,8,10,12,14,16,18,20,22,24,26,28,30,-1,-1,-1,-1,-1,-1,-1,-1,-1,-1,-1,-1,-1,-1,-1,-1],"split_conditions":[9.101E3,5.916E3,1.619E4,1.7017395E4,2.6542242E4,2.302335E3,1.752414E3,-7.0710677E-1,3.204E3,2.1204855E4,3.2336756E4,1.2057E4,7.626367E3,2.26E2,5.498463E3,3.0618103E0,-2.1711364E-2,-2.6532247E0,-1.5975266E0,1.0773882E0,1.1017776E-1,-6.019478E-1,-1.5360771E0,1.6191279E0,2.7086399E0,1.1397147E0,7.3022835E-2,3.7622805E0,4.693564E0,2.9789553E0,1.9310213E0],"split_indices":[10,10,10,19,19,18,18,20,10,19,19,10,17,26,17,0,0,0,0,0,0,0,0,0,0,0,0,0,0,0,0],"split_type":[0,0,0,0,0,0,0,0,0,0,0,0,0,0,0,0,0,0,0,0,0,0,0,0,0,0,0,0,0,0,0],"sum_hessian":[1.3968E4,8.729E3,5.239E3,6.035E3,2.694E3,3.542E3,1.697E3,8.03E2,5.232E3,1.508E3,1.186E3,1.805E3,1.737E3,6.52E2,1.045E3,1.06E2,6.97E2,2.25E3,2.982E3,6.16E2,8.92E2,9E2,2.86E2,9.35E2,8.7E2,1.137E3,6E2,3.36E2,3.16E2,6.25E2,4.2E2],"tree_param":{"num_deleted":"0","num_feature":"29","num_nodes":"31","size_leaf_vector":"1"}},{"base_weights":[-2.820279E-2,-1.9557236E1,2.284693E1,-4.7177534E0,-2.5685093E1,9.788454E0,3.5128723E1,2.2082987E1,-9.310474E0,-3.4704685E1,-1.5680135E1,2.2242565E1,2.2467406E0,4.6955334E1,2.5551292E1,-1.1782198E-1,2.1240513E0,-1.141708E0,1.9159676E-1,-2.8366585E0,-2.0990548E0,-8.126687E-1,-1.7533257E0,2.127309E0,1.1552471E0,4.34402E-1,-6.6819274E-1,3.5358E0,1.999854E0,1.4632308E0,2.8069959E0],"categories":[],"categories_nodes":[],"categories_segments":[],"categories_sizes":[],"default_left":[0,0,0,0,0,0,0,0,0,0,0,0,0,0,0,0,0,0,0,0,0,0,0,0,0,0,0,0,0,0,0],"id":11,"left_children":[1,3,5,7,9,11,13,15,17,19,21,23,25,27,29,-1,-1,-1,-1,-1,-1,-1,-1,-1,-1,-1,-1,-1,-1,-1,-1],"loss_changes":[6.227405E6,6.837035E5,1.0293045E6,2.708767E5,4.797165E5,2.9233938E5,3.7349225E5,6.326733E4,1.5841397E5,7.56035E4,9.598875E4,5.439325E4,9.0629945E4,9.52565E4,1.229095E5,0E0,0E0,0E0,0E0,0E0,0E0,0E0,0E0,0E0,0E0,0E0,0E0,0E0,0E0,0E0,0E0],"parents":[2147483647,0,0,1,1,2,2,3,3,4,4,5,5,6,6,7,7,8,8,9,9,10,10,11,11,12,12,13,13,14,14],"right_children":[2,4,6,8,10,12,14,16,18,20,22,24,26,28,30,-1,-1,-1,-1,-1,-1,-1,-1,-1,-1,-1,-1,-1,-1,-1,-1],"split_conditions":[7.654E3,2.1329908E4,1.216E4,1.1441897E4,4.19E3,2.483815E4,3.156136E3,9.1E1,4.636E3,2.73E3,6.111482E3,2.314799E3,3.1868645E4,2.651E3,1.9548E4,-1.1782198E-1,2.1240513E0,-1.141708E0,1.9159676E-1,-2.8366585E0,-2.0990548E0,-8.126687E-1,-1.7533257E0,2.127309E0,1.1552471E0,4.34402E-1,-6.6819274E-1,3.5358E0,1.999854E0,1.4632308E0,2.8069959E0],"split_indices":[10,19,10,19,10,19,17,26,10,10,18,17,19,16,10,0,0,0,0,0,0,0,0,0,0,0,0,0,0,0,0],"split_type":[0,0,0,0,0,0,0,0,0,0,0,0,0,0,0,0,0,0,0,0,0,0,0,0,0,0,0,0,0,0,0],"sum_hessian":[1.3938E4,7.519E3,6.419E3,2.198E3,5.321E3,3.112E3,3.307E3,3.21E2,1.877E3,2.797E3,2.524E3,1.173E3,1.939E3,1.478E3,1.829E3,8.3E1,2.38E2,1.187E3,6.9E2,1.249E3,1.548E3,1.761E3,7.63E2,4.83E2,6.9E2,1.452E3,4.87E2,1.237E3,2.41E2,1.388E3,4.41E2],"tree_param":{"num_deleted":"0","num_feature":"29","num_nodes":"31","size_leaf_vector":"1"}},{"base_weights":[5.5771433E-2,-1.5060406E1,2.5275246E1,-3.9614382E0,-2.2939596E1,1.8004147E1,4.0238163E1,1.8511759E0,-1.8746153E1,-2.731156E1,-1.1026789E1,2.7294794E1,9.964931E0,5.159057E1,3.209083E1,1.5702864E0,-6.958012E-2,-1.7962824E0,-4.488805E-1,-7.4128693E-1,-2.0191495E0,-9.3888783E-1,4.144198E-1,2.2159445E0,9.6261287E-1,1.058328E0,1.262963E-1,3.8057983E0,2.373467E0,2.5329635E0,1.4696472E0],"categories":[],"categories_nodes":[],"categories_segments":[],"categories_sizes":[],"default_left":[0,0,0,0,0,0,0,0,0,0,0,0,0,0,0,0,0,0,0,0,0,0,0,0,0,0,0,0,0,0,0],"id":12,"left_children":[1,3,5,7,9,11,13,15,17,19,21,23,25,27,29,-1,-1,-1,-1,-1,-1,-1,-1,-1,-1,-1,-1,-1,-1,-1,-1],"loss_changes":[5.3527385E6,7.676401E5,5.7176425E5,3.1336425E5,2.6708925E5,2.6435262E5,1.574295E5,1.5332731E5,8.7595375E4,9.597875E4,5.5878297E4,9.6615375E4,7.992972E4,3.3378625E4,4.4852062E4,0E0,0E0,0E0,0E0,0E0,0E0,0E0,0E0,0E0,0E0,0E0,0E0,0E0,0E0,0E0,0E0],"parents":[2147483647,0,0,1,1,2,2,3,3,4,4,5,5,6,6,7,7,8,8,9,9,10,10,11,11,12,12,13,13,14,14],"right_children":[2,4,6,8,10,12,14,16,18,20,22,24,26,28,30,-1,-1,-1,-1,-1,-1,-1,-1,-1,-1,-1,-1,-1,-1,-1,-1],"split_conditions":[9.101E3,5.498463E3,1.619E4,6.404E3,5.406E3,3.425545E3,2.847067E3,3.16E2,5.463E3,9.1E1,9.659258E-1,3.277E3,7.176745E3,2.342E3,6.721557E3,1.5702864E0,-6.958012E-2,-1.7962824E0,-4.488805E-1,-7.4128693E-1,-2.0191495E0,-9.3888783E-1,4.144198E-1,2.2159445E0,9.6261287E-1,1.058328E0,1.262963E-1,3.8057983E0,2.373467E0,2.5329635E0,1.4696472E0],"split_indices":[10,17,10,16,10,17,17,9,10,15,20,16,17,16,17,0,0,0,0,0,0,0,0,0,0,0,0,0,0,0,0],"split_type":[0,0,0,0,0,0,0,0,0,0,0,0,0,0,0,0,0,0,0,0,0,0,0,0,0,0,0,0,0,0,0],"sum_hessian":[1.4039E4,8.778E3,5.261E3,3.645E3,5.133E3,3.542E3,1.719E3,2.617E3,1.028E3,3.754E3,1.379E3,1.642E3,1.9E3,7.16E2,1.003E3,3.17E2,2.3E3,6.58E2,3.7E2,3.16E2,3.438E3,1.209E3,1.7E2,1.241E3,4.01E2,1.164E3,7.36E2,6.17E2,9.9E1,7.31E2,2.72E2],"tree_param":{"num_deleted":"0","num_feature":"29","num_nodes":"31","size_leaf_vector":"1"}},{"base_weights":[-1.0368052E-1,-1.778156E1,1.898115E1,-4.3217807E0,-2.348007E1,1.0285088E1,3.323936E1,1.9737026E1,-8.441248E0,-3.105342E1,-1.5575833E1,1.4614176E1,-4.9426117E0,4.5322575E1,2.5514174E1,2.5756917E0,8.165439E-1,-1.1261593E0,-6.2903063E-3,-2.5660155E0,-1.8872534E0,-7.355251E-1,-1.4887441E0,1.5848438E0,6.8075764E-1,-5.486537E-1,7.169635E-1,2.7459633E0,3.741965E0,1.4482353E0,2.451707E0],"categories":[],"categories_nodes":[],"categories_segments":[],"categories_sizes":[],"default_left":[0,0,0,0,0,0,0,0,0,0,0,0,0,0,0,0,0,0,0,0,0,0,0,0,0,0,0,0,0,0,0],"id":13,"left_children":[1,3,5,7,9,11,13,15,17,19,21,23,25,27,29,-1,-1,-1,-1,-1,-1,-1,-1,-1,-1,-1,-1,-1,-1,-1,-1],"loss_changes":[4.760423E6,5.6173075E5,8.4093175E5,2.1622514E5,3.075635E5,2.779997E5,2.3873975E5,4.3496195E4,1.1890739E5,5.926125E4,7.2474875E4,1.286105E5,4.1143535E4,4.7524875E4,7.13185E4,0E0,0E0,0E0,0E0,0E0,0E0,0E0,0E0,0E0,0E0,0E0,0E0,0E0,0E0,0E0,0E0],"parents":[2147483647,0,0,1,1,2,2,3,3,4,4,5,5,6,6,7,7,8,8,9,9,10,10,11,11,12,12,13,13,14,14],"right_children":[2,4,6,8,10,12,14,16,18,20,22,24,26,28,30,-1,-1,-1,-1,-1,-1,-1,-1,-1,-1,-1,-1,-1,-1,-1,-1],"split_conditions":[7.342E3,2.1329908E4,1.3875E4,1.1441897E4,3.974E3,4.593991E3,1.772627E3,-5E-1,3.935E3,2.635E3,2.759558E4,2.4277225E4,8.660254E-1,2.18E2,1.9548E4,2.5756917E0,8.165439E-1,-1.1261593E0,-6.2903063E-3,-2.5660155E0,-1.8872534E0,-7.355251E-1,-1.4887441E0,1.5848438E0,6.8075764E-1,-5.486537E-1,7.169635E-1,2.7459633E0,3.741965E0,1.4482353E0,2.451707E0],"split_indices":[10,19,10,19,10,18,18,20,10,10,19,19,20,26,10,0,0,0,0,0,0,0,0,0,0,0,0,0,0,0,0],"split_type":[0,0,0,0,0,0,0,0,0,0,0,0,0,0,0,0,0,0,0,0,0,0,0,0,0,0,0,0,0,0,0],"sum_hessian":[1.4108E4,7.324E3,6.784E3,2.179E3,5.145E3,4.215E3,2.569E3,3.18E2,1.861E3,2.626E3,2.519E3,3.282E3,9.33E2,1E3,1.569E3,1.01E2,2.17E2,9.71E2,8.9E2,1.105E3,1.521E3,1.334E3,1.185E3,1.241E3,2.041E3,7.84E2,1.49E2,5.75E2,4.25E2,1.043E3,5.26E2],"tree_param":{"num_deleted":"0","num_feature":"29","num_nodes":"31","size_leaf_vector":"1"}},{"base_weights":[8.925368E-2,-1.254424E1,2.3496393E1,-1.8438976E1,9.5159376E-1,1.764524E1,3.567553E1,2.3307939E0,-2.2207996E1,1.21839E1,-4.7383256E0,2.6239395E1,1.0075903E1,4.2488808E1,2.2248219E1,-6.290037E-1,1.164465E0,-2.0693567E0,-1.1916988E0,1.2415738E0,5.8064395E-1,-1.4939916E-1,-1.1018189E0,2.1463099E0,1.1256135E0,9.6885675E-1,3.4500513E-2,3.459826E0,2.5151284E0,1.7442306E0,4.7929353E-1],"categories":[],"categories_nodes":[],"categories_segments":[],"categories_sizes":[],"default_left":[0,0,0,0,0,0,0,0,0,0,0,0,0,0,0,0,0,0,0,0,0,0,0,0,0,0,0,0,0,0,0],"id":14,"left_children":[1,3,5,7,9,11,13,15,17,19,21,23,25,27,29,-1,-1,-1,-1,-1,-1,-1,-1,-1,-1,-1,-1,-1,-1,-1,-1],"loss_changes":[4.1488658E6,7.249174E5,3.498365E5,4.96514E5,1.7715497E5,2.1596831E5,1.4497088E5,1.579795E5,2.041375E5,1.9979188E4,5.2681547E4,6.9410875E4,6.3817266E4,4.6314125E4,2.1988062E4,0E0,0E0,0E0,0E0,0E0,0E0,0E0,0E0,0E0,0E0,0E0,0E0,0E0,0E0,0E0,0E0],"parents":[2147483647,0,0,1,1,2,2,3,3,4,4,5,5,6,6,7,7,8,8,9,9,10,10,11,11,12,12,13,13,14,14],"right_children":[2,4,6,8,10,12,14,16,18,20,22,24,26,28,30,-1,-1,-1,-1,-1,-1,-1,-1,-1,-1,-1,-1,-1,-1,-1,-1],"split_conditions":[9.565E3,6.226E3,1.6692E4,1.7853002E4,2.33842E4,2.043268E3,3.373697E3,0E0,3.204E3,1.458219E3,3.1751055E4,1.935E3,5.333935E3,1.478138E3,6.822401E3,-6.290037E-1,1.164465E0,-2.0693567E0,-1.1916988E0,1.2415738E0,5.8064395E-1,-1.4939916E-1,-1.1018189E0,2.1463099E0,1.1256135E0,9.6885675E-1,3.4500513E-2,3.459826E0,2.5151284E0,1.7442306E0,4.7929353E-1],"split_indices":[10,10,10,19,19,18,18,22,10,18,19,16,18,18,18,0,0,0,0,0,0,0,0,0,0,0,0,0,0,0,0],"split_type":[0,0,0,0,0,0,0,0,0,0,0,0,0,0,0,0,0,0,0,0,0,0,0,0,0,0,0,0,0,0,0],"sum_hessian":[1.4028E4,9.111E3,4.917E3,6.341E3,2.77E3,3.323E3,1.594E3,9.74E2,5.367E3,9.31E2,1.839E3,1.555E3,1.768E3,1.056E3,5.38E2,5.44E2,4.3E2,2.217E3,3.15E3,3.82E2,5.49E2,1.488E3,3.51E2,1.082E3,4.73E2,1.269E3,4.99E2,5.1E2,5.46E2,4.58E2,8E1],"tree_param":{"num_deleted":"0","num_feature":"29","num_nodes":"31","size_leaf_vector":"1"}},{"base_weights":[-6.173405E-2,-1.1793626E1,2.1539026E1,-3.1677897E0,-2.0061924E1,2.9739693E1,1.41564455E1,-8.979634E0,5.8380504E0,-2.4207191E1,-1.1666563E1,2.2650434E1,3.9592117E1,9.4116745E0,2.507493E1,1.7768846E0,-8.4224784E-1,9.409265E-1,3.599191E-2,-1.2196672E-1,-1.8441728E0,-6.281386E-1,-1.3690082E0,2.3237574E0,1.324957E0,2.5089123E0,3.456629E0,9.710177E-1,1.3551937E-1,1.4606738E0,2.4285994E0],"categories":[],"categories_nodes":[],"categories_segments":[],"categories_sizes":[],"default_left":[0,0,0,0,0,0,0,0,0,0,0,0,0,0,0,0,0,0,0,0,0,0,0,0,0,0,0,0,0,0,0],"id":15,"left_children":[1,3,5,7,9,11,13,15,17,19,21,23,25,27,29,-1,-1,-1,-1,-1,-1,-1,-1,-1,-1,-1,-1,-1,-1,-1,-1],"loss_changes":[3.554692E6,6.482439E5,2.984745E5,2.3296789E5,1.6122875E5,1.624035E5,1.3445853E5,2.8404475E5,7.0673625E4,1.4914362E5,3.2465547E4,5.2840062E4,3.409625E4,6.045464E4,3.1133094E4,0E0,0E0,0E0,0E0,0E0,0E0,0E0,0E0,0E0,0E0,0E0,0E0,0E0,0E0,0E0,0E0],"parents":[2147483647,0,0,1,1,2,2,3,3,4,4,5,5,6,6,7,7,8,8,9,9,10,10,11,11,12,12,13,13,14,14],"right_children":[2,4,6,8,10,12,14,16,18,20,22,24,26,28,30,-1,-1,-1,-1,-1,-1,-1,-1,-1,-1,-1,-1,-1,-1,-1,-1],"split_conditions":[9.565E3,3.960888E3,2.131347E3,6.336E3,4.959E3,1.4982E4,1.7066E4,1.0126658E4,2.2479693E4,1.8675793E4,7.316151E3,2.2724988E4,2.1739E4,3.370321E4,2.1451E4,1.7768846E0,-8.4224784E-1,9.409265E-1,3.599191E-2,-1.2196672E-1,-1.8441728E0,-6.281386E-1,-1.3690082E0,2.3237574E0,1.324957E0,2.5089123E0,3.456629E0,9.710177E-1,1.3551937E-1,1.4606738E0,2.4285994E0],"split_indices":[10,18,18,10,10,10,10,19,19,19,18,19,10,19,10,0,0,0,0,0,0,0,0,0,0,0,0,0,0,0,0],"split_type":[0,0,0,0,0,0,0,0,0,0,0,0,0,0,0,0,0,0,0,0,0,0,0,0,0,0,0,0,0,0,0],"sum_hessian":[1.4025E4,9.089E3,4.936E3,4.449E3,4.64E3,2.337E3,2.599E3,2.704E3,1.745E3,3.105E3,1.535E3,1.361E3,9.76E2,1.813E3,7.86E2,2.2E2,2.484E3,7.18E2,1.027E3,2.7E2,2.835E3,1.146E3,3.89E2,3.53E2,1.008E3,7.09E2,2.67E2,1.135E3,6.78E2,5.49E2,2.37E2],"tree_param":{"num_deleted":"0","num_feature":"29","num_nodes":"31","size_leaf_vector":"1"}},{"base_weights":[4.128131E-2,-1.4878552E1,1.4776101E1,-2.989529E0,-1.9540873E1,5.5055113E0,2.482724E1,2.1927834E1,-6.2303777E0,-2.5960281E1,-1.4135073E1,1.1999308E1,-2.420656E0,3.0175608E1,1.2701976E1,2.1844137E0,1.5270394E-1,-5.068043E-1,2.2820172E0,-1.5687968E0,-2.1636693E0,-6.4378846E-1,-1.3015617E0,1.35867E0,6.0979986E-1,-4.0666837E-1,2.8965405E-1,2.340728E0,1.3486198E0,1.103718E0,1.1460394E-1],"categories":[],"categories_nodes":[],"categories_segments":[],"categories_sizes":[],"default_left":[0,0,0,0,0,0,0,0,0,0,0,0,0,0,0,0,0,0,0,0,0,0,0,0,0,0,0,0,0,0,0],"id":16,"left_children":[1,3,5,7,9,11,13,15,17,19,21,23,25,27,29,-1,-1,-1,-1,-1,-1,-1,-1,-1,-1,-1,-1,-1,-1,-1,-1],"loss_changes":[3.0656835E6,3.84019E5,6.5361375E5,1.5784784E5,1.7234475E5,1.8794945E5,2.179025E5,4.1153406E4,6.802409E4,3.9248375E4,5.93635E4,4.8729344E4,3.6586297E4,8.2486E4,3.497764E4,0E0,0E0,0E0,0E0,0E0,0E0,0E0,0E0,0E0,0E0,0E0,0E0,0E0,0E0,0E0,0E0],"parents":[2147483647,0,0,1,1,2,2,3,3,4,4,5,5,6,6,7,7,8,8,9,9,10,10,11,11,12,12,13,13,14,14],"right_children":[2,4,6,8,10,12,14,16,18,20,22,24,26,28,30,-1,-1,-1,-1,-1,-1,-1,-1,-1,-1,-1,-1,-1,-1,-1,-1],"split_conditions":[6.93E3,2.0838537E4,1.2057E4,9.090603E3,3.547E3,2.687895E4,5.498463E3,2.680758E3,2.14E2,2.670042E4,4.846155E3,2.1103621E4,1.0252E4,1.898E3,5.900023E3,2.1844137E0,1.5270394E-1,-5.068043E-1,2.2820172E0,-1.5687968E0,-2.1636693E0,-6.4378846E-1,-1.3015617E0,1.35867E0,6.0979986E-1,-4.0666837E-1,2.8965405E-1,2.340728E0,1.3486198E0,1.103718E0,1.1460394E-1],"split_indices":[10,19,10,19,10,19,17,18,28,19,18,19,10,16,18,0,0,0,0,0,0,0,0,0,0,0,0,0,0,0,0],"split_type":[0,0,0,0,0,0,0,0,0,0,0,0,0,0,0,0,0,0,0,0,0,0,0,0,0,0,0,0,0,0,0],"sum_hessian":[1.3943E4,6.928E3,7.015E3,1.952E3,4.976E3,3.65E3,3.365E3,2.24E2,1.728E3,2.273E3,2.703E3,2.006E3,1.644E3,2.334E3,1.031E3,1.52E2,7.2E1,1.685E3,4.3E1,1.327E3,9.46E2,1.284E3,1.419E3,6.15E2,1.391E3,1.084E3,5.6E2,1.795E3,5.39E2,8.07E2,2.24E2],"tree_param":{"num_deleted":"0","num_feature":"29","num_nodes":"31","size_leaf_vector":"1"}},{"base_weights":[-7.5629905E-2,-9.838793E0,1.9166002E1,-1.8746115E0,-1.6819578E1,2.721401E1,1.2405099E1,-6.842098E0,5.7140813E0,-2.0206436E1,-8.272788E0,2.0695742E1,3.4178314E1,8.772277E0,2.3949163E1,1.3423502E0,-6.866255E-1,9.016867E-1,8.281574E-2,-1.0733298E-1,-1.5379211E0,-3.7371948E-1,-1.1110586E0,1.6560314E0,5.927635E-1,3.2127266E0,2.1847816E0,9.3005013E-1,8.8008106E-2,2.0579417E0,1.1058962E0],"categories":[],"categories_nodes":[],"categories_segments":[],"categories_sizes":[],"default_left":[0,0,0,0,0,0,0,0,0,0,0,0,0,0,0,0,0,0,0,0,0,0,0,0,0,0,0,0,0,0,0],"id":17,"left_children":[1,3,5,7,9,11,13,15,17,19,21,23,25,27,29,-1,-1,-1,-1,-1,-1,-1,-1,-1,-1,-1,-1,-1,-1,-1,-1],"loss_changes":[2.6219512E6,5.1473394E5,2.5528875E5,1.6311517E5,1.4265588E5,9.6619375E4,1.0693997E5,2.0204705E5,5.5580766E4,1.16331875E5,3.1174602E4,3.999975E4,3.4552E4,6.596522E4,2.6676344E4,0E0,0E0,0E0,0E0,0E0,0E0,0E0,0E0,0E0,0E0,0E0,0E0,0E0,0E0,0E0,0E0],"parents":[2147483647,0,0,1,1,2,2,3,3,4,4,5,5,6,6,7,7,8,8,9,9,10,10,11,11,12,12,13,13,14,14],"right_children":[2,4,6,8,10,12,14,16,18,20,22,24,26,28,30,-1,-1,-1,-1,-1,-1,-1,-1,-1,-1,-1,-1,-1,-1,-1,-1],"split_conditions":[9.763E3,3.726025E3,3.2624E3,6.537E3,5.508E3,1.4802E4,1.8013E4,1.3166102E4,2.2144459E4,1.8675793E4,3.2336756E4,4.036E3,6.09473E2,4.395978E3,4.033727E3,1.3423502E0,-6.866255E-1,9.016867E-1,8.281574E-2,-1.0733298E-1,-1.5379211E0,-3.7371948E-1,-1.1110586E0,1.6560314E0,5.927635E-1,3.2127266E0,2.1847816E0,9.3005013E-1,8.8008106E-2,2.0579417E0,1.1058962E0],"split_indices":[10,18,17,10,10,10,10,19,19,19,19,16,18,18,18,0,0,0,0,0,0,0,0,0,0,0,0,0,0,0,0],"split_type":[0,0,0,0,0,0,0,0,0,0,0,0,0,0,0,0,0,0,0,0,0,0,0,0,0,0,0,0,0,0,0],"sum_hessian":[1.3955E4,9.258E3,4.697E3,4.325E3,4.933E3,2.143E3,2.554E3,2.614E3,1.711E3,3.532E3,1.401E3,1.109E3,1.034E3,1.944E3,6.1E2,2.67E2,2.347E3,6.62E2,1.049E3,3.05E2,3.227E3,1.012E3,3.89E2,8.92E2,2.17E2,2.06E2,8.28E2,1.214E3,7.3E2,3.64E2,2.46E2],"tree_param":{"num_deleted":"0","num_feature":"29","num_nodes":"31","size_leaf_vector":"1"}},{"base_weights":[-9.604736E-2,-9.767978E0,1.6997618E1,-1.4011552E0,-1.5068225E1,1.3358006E1,2.9578228E1,1.1996258E0,-1.3691933E1,-1.8228373E1,-7.020252E0,1.8272215E1,5.220179E0,3.4649353E1,1.9451374E1,5.140947E-1,-3.1993383E-1,-6.34581E-1,-1.7007413E0,2.0655345E-2,-1.3883414E0,-3.3350837E-1,-1.0757695E0,1.4257511E0,4.6418473E-1,2.2532563E-1,1.5141135E0,2.5353222E0,1.0500588E0,8.2266057E-1,1.7858751E0],"categories":[],"categories_nodes":[],"categories_segments":[],"categories_sizes":[],"default_left":[0,0,0,0,0,0,0,0,0,0,0,0,0,0,0,0,0,0,0,0,0,0,0,0,0,0,0,0,0,0,0],"id":18,"left_children":[1,3,5,7,9,11,13,15,17,19,21,23,25,27,29,-1,-1,-1,-1,-1,-1,-1,-1,-1,-1,-1,-1,-1,-1,-1,-1],"loss_changes":[2.3342772E6,3.9984862E5,2.3321762E5,1.118323E5,1.4026075E5,1.5822862E5,5.8075E4,1.0242741E5,2.9755695E4,1.1783225E5,2.926614E4,6.0072812E4,4.8928004E4,2.2924688E4,1.7619203E4,0E0,0E0,0E0,0E0,0E0,0E0,0E0,0E0,0E0,0E0,0E0,0E0,0E0,0E0,0E0,0E0],"parents":[2147483647,0,0,1,1,2,2,3,3,4,4,5,5,6,6,7,7,8,8,9,9,10,10,11,11,12,12,13,13,14,14],"right_children":[2,4,6,8,10,12,14,16,18,20,22,24,26,28,30,-1,-1,-1,-1,-1,-1,-1,-1,-1,-1,-1,-1,-1,-1,-1,-1],"split_conditions":[9.352E3,3.179968E3,1.8538E4,7.637E3,5.508E3,3.009077E3,3.348057E3,3.973691E3,3.298447E3,1.7273158E4,6.936356E3,4.036E3,9.659258E-1,2.914E3,2.3030567E-1,5.140947E-1,-3.1993383E-1,-6.34581E-1,-1.7007413E0,2.0655345E-2,-1.3883414E0,-3.3350837E-1,-1.0757695E0,1.4257511E0,4.6418473E-1,2.2532563E-1,1.5141135E0,2.5353222E0,1.0500588E0,8.2266057E-1,1.7858751E0],"split_indices":[10,18,10,16,10,18,18,17,17,19,18,16,20,16,24,0,0,0,0,0,0,0,0,0,0,0,0,0,0,0,0],"split_type":[0,0,0,0,0,0,0,0,0,0,0,0,0,0,0,0,0,0,0,0,0,0,0,0,0,0,0,0,0,0,0],"sum_hessian":[1.4117E4,9.016E3,5.101E3,3.497E3,5.519E3,3.958E3,1.143E3,2.887E3,6.1E2,3.962E3,1.557E3,2.467E3,1.491E3,7.6E2,3.83E2,1.398E3,1.489E3,4.26E2,1.84E2,3.16E2,3.646E3,1.227E3,3.3E2,2.09E3,3.77E2,1.33E3,1.61E2,7.03E2,5.7E1,1.7E2,2.13E2],"tree_param":{"num_deleted":"0","num_feature":"29","num_nodes":"31","size_leaf_vector":"1"}},{"base_weights":[1.302555E-1,-1.1626032E1,1.2624208E1,-3.8464944E0,-1.633989E1,5.4721394E0,2.0627651E1,1.9361135E1,-5.9286494E0,-2.4413517E1,-1.257108E1,1.1517718E1,-8.095854E-1,2.9240585E1,1.4568948E1,2.0614506E-1,2.2088459E0,-7.746114E-1,2.9286083E-3,-1.5243703E0,-2.0520563E0,-5.2513546E-1,-1.0682776E0,1.3779516E0,6.207287E-1,1.2349016E-1,-6.298948E-1,2.9293816E0,1.8826884E0,1.3557394E0,4.7592747E-1],"categories":[],"categories_nodes":[],"categories_segments":[],"categories_sizes":[],"default_left":[0,0,0,0,0,0,0,0,0,0,0,0,0,0,0,0,0,0,0,0,0,0,0,0,0,0,0,0,0,0,0],"id":19,"left_children":[1,3,5,7,9,11,13,15,17,19,21,23,25,27,29,-1,-1,-1,-1,-1,-1,-1,-1,-1,-1,-1,-1,-1,-1,-1,-1],"loss_changes":[2.0617896E6,2.651462E5,3.89413E5,1.3203339E5,1.3670975E5,1.3653553E5,1.67134E5,4.4946336E4,7.686399E4,1.7868938E4,4.17755E4,3.947825E4,3.71941E4,3.8048125E4,7.022722E4,0E0,0E0,0E0,0E0,0E0,0E0,0E0,0E0,0E0,0E0,0E0,0E0,0E0,0E0,0E0,0E0],"parents":[2147483647,0,0,1,1,2,2,3,3,4,4,5,5,6,6,7,7,8,8,9,9,10,10,11,11,12,12,13,13,14,14],"right_children":[2,4,6,8,10,12,14,16,18,20,22,24,26,28,30,-1,-1,-1,-1,-1,-1,-1,-1,-1,-1,-1,-1,-1,-1,-1,-1],"split_conditions":[7.269E3,2.2559246E4,1.2424E4,9.090603E3,3.054E3,2.6542242E4,2.963532E3,-4.3388373E-1,3.837E3,2.8019916E4,4.285578E3,1.84629E3,3.3155992E4,4.99748E2,4.285578E3,2.0614506E-1,2.2088459E0,-7.746114E-1,2.9286083E-3,-1.5243703E0,-2.0520563E0,-5.2513546E-1,-1.0682776E0,1.3779516E0,6.207287E-1,1.2349016E-1,-6.298948E-1,2.9293816E0,1.8826884E0,1.3557394E0,4.7592747E-1],"split_indices":[10,19,10,19,10,19,17,22,10,19,18,17,19,18,18,0,0,0,0,0,0,0,0,0,0,0,0,0,0,0,0],"split_type":[0,0,0,0,0,0,0,0,0,0,0,0,0,0,0,0,0,0,0,0,0,0,0,0,0,0,0,0,0,0,0],"sum_hessian":[1.4035E4,7.231E3,6.804E3,2.729E3,4.502E3,3.594E3,3.21E3,2.24E2,2.505E3,1.431E3,3.071E3,1.831E3,1.763E3,1.324E3,1.886E3,9.6E1,1.28E2,1.346E3,1.159E3,9.34E2,4.97E2,1.066E3,2.005E3,4.47E2,1.384E3,1.342E3,4.21E2,2.05E2,1.119E3,1.165E3,7.21E2],"tree_param":{"num_deleted":"0","num_feature":"29","num_nodes":"31","size_leaf_vector":"1"}},{"base_weights":[4.3342143E-2,-1.0969745E1,1.1582542E1,-2.5655167E0,-1.4908861E1,4.780074E0,1.9257097E1,2.42089E1,-4.588111E0,-2.3468534E1,-1.213203E1,1.2009165E1,4.2838907E-1,2.4031315E1,1.0189797E1,8.257677E-1,2.932726E0,2.0534298E-1,-6.080536E-1,-1.3388815E0,-1.8640484E0,-5.6490237E-1,-1.0650759E0,1.5378336E0,6.434594E-1,2.0822033E-1,-5.214944E-1,1.4927402E0,2.4171407E0,1.047977E0,2.4606185E-1],"categories":[],"categories_nodes":[],"categories_segments":[],"categories_sizes":[],"default_left":[0,0,0,0,0,0,0,0,0,0,0,0,0,0,0,0,0,0,0,0,0,0,0,0,0,0,0,0,0,0,0],"id":20,"left_children":[1,3,5,7,9,11,13,15,17,19,21,23,25,27,29,-1,-1,-1,-1,-1,-1,-1,-1,-1,-1,-1,-1,-1,-1,-1,-1],"loss_changes":[1.7813114E6,2.3739231E5,3.5725712E5,1.2412303E5,1.15777875E5,1.1418991E5,1.3897312E5,3.485072E4,6.568539E4,1.5888875E4,4.6079875E4,3.8065953E4,4.5497344E4,5.9106875E4,3.5402992E4,0E0,0E0,0E0,0E0,0E0,0E0,0E0,0E0,0E0,0E0,0E0,0E0,0E0,0E0,0E0,0E0],"parents":[2147483647,0,0,1,1,2,2,3,3,4,4,5,5,6,6,7,7,8,8,9,9,10,10,11,11,12,12,13,13,14,14],"right_children":[2,4,6,8,10,12,14,16,18,20,22,24,26,28,30,-1,-1,-1,-1,-1,-1,-1,-1,-1,-1,-1,-1,-1,-1,-1,-1],"split_conditions":[7.212E3,2.158218E4,1.2424E4,-7.0710677E-1,2.73E3,2.4919877E4,3.403591E3,0E0,3.498768E3,2.5583734E4,4.916008E3,1.714619E3,3.2120346E4,2.1225E4,6.602073E3,8.257677E-1,2.932726E0,2.0534298E-1,-6.080536E-1,-1.3388815E0,-1.8640484E0,-5.6490237E-1,-1.0650759E0,1.5378336E0,6.434594E-1,2.0822033E-1,-5.214944E-1,1.4927402E0,2.4171407E0,1.047977E0,2.4606185E-1],"split_indices":[10,19,10,20,10,19,18,22,17,19,18,17,19,10,17,0,0,0,0,0,0,0,0,0,0,0,0,0,0,0,0],"split_type":[0,0,0,0,0,0,0,0,0,0,0,0,0,0,0,0,0,0,0,0,0,0,0,0,0,0,0,0,0,0,0],"sum_hessian":[1.4015E4,7.171E3,6.844E3,2.289E3,4.882E3,3.629E3,3.215E3,1.6E2,2.129E3,1.194E3,3.688E3,1.363E3,2.266E3,2.105E3,1.11E3,9.5E1,6.5E1,7.51E2,1.378E3,5.06E2,6.88E2,1.593E3,2.095E3,2.99E2,1.064E3,1.713E3,5.53E2,1.676E3,4.29E2,6.46E2,4.64E2],"tree_param":{"num_deleted":"0","num_feature":"29","num_nodes":"31","size_leaf_vector":"1"}},{"base_weights":[-7.059669E-2,-7.4347925E0,1.4907171E1,-1.1878915E1,-6.2372252E-2,2.0869469E1,9.081655E0,6.6124916E0,-1.3839151E1,4.911245E0,-5.685082E0,1.7827044E1,2.953335E1,6.0897555E0,1.786511E1,-4.382616E-1,1.2596452E0,-1.318569E0,-7.316638E-1,1.5394983E-2,5.4966074E-1,-2.691871E-1,-9.906862E-1,1.9277463E0,1.1030221E0,2.251346E0,1.3647949E0,3.0859283E-1,1.6725204E0,1.6499106E0,9.082673E-1],"categories":[],"categories_nodes":[],"categories_segments":[],"categories_sizes":[],"default_left":[0,0,0,0,0,0,0,0,0,0,0,0,0,0,0,0,0,0,0,0,0,0,0,0,0,0,0,0,0,0,0],"id":21,"left_children":[1,3,5,7,9,11,13,15,17,19,21,23,25,27,29,-1,-1,-1,-1,-1,-1,-1,-1,-1,-1,-1,-1,-1,-1,-1,-1],"loss_changes":[1.5416526E6,3.0699725E5,1.5982731E5,2.1199462E5,9.860529E4,5.94665E4,6.1174094E4,8.2316336E4,8.9272375E4,2.5813129E4,2.5724586E4,3.3474625E4,1.4938219E4,5.2007062E4,1.6208734E4,0E0,0E0,0E0,0E0,0E0,0E0,0E0,0E0,0E0,0E0,0E0,0E0,0E0,0E0,0E0,0E0],"parents":[2147483647,0,0,1,1,2,2,3,3,4,4,5,5,6,6,7,7,8,8,9,9,10,10,11,11,12,12,13,13,14,14],"right_children":[2,4,6,8,10,12,14,16,18,20,22,24,26,28,30,-1,-1,-1,-1,-1,-1,-1,-1,-1,-1,-1,-1,-1,-1,-1,-1],"split_conditions":[9.908E3,5.648E3,3.498768E3,1.5739928E4,2.6196621E4,1.9318E4,1.7784E4,0E0,3.054E3,0E0,5E-1,-9.587178E-1,4.288E3,9.659258E-1,3.403591E3,-4.382616E-1,1.2596452E0,-1.318569E0,-7.316638E-1,1.5394983E-2,5.4966074E-1,-2.691871E-1,-9.906862E-1,1.9277463E0,1.1030221E0,2.251346E0,1.3647949E0,3.0859283E-1,1.6725204E0,1.6499106E0,9.082673E-1],"split_indices":[10,10,17,19,19,10,10,22,10,20,21,24,14,20,18,0,0,0,0,0,0,0,0,0,0,0,0,0,0,0,0],"split_type":[0,0,0,0,0,0,0,0,0,0,0,0,0,0,0,0,0,0,0,0,0,0,0,0,0,0,0,0,0,0,0],"sum_hessian":[1.3975E4,9.369E3,4.606E3,5.845E3,3.524E3,2.275E3,2.331E3,5.6E2,5.285E3,1.87E3,1.654E3,1.686E3,5.89E2,1.74E3,5.91E2,2.63E2,2.97E2,2.133E3,3.152E3,7.21E2,1.149E3,1.36E3,2.94E2,2.94E2,1.392E3,4.65E2,1.24E2,1.591E3,1.49E2,2.71E2,3.2E2],"tree_param":{"num_deleted":"0","num_feature":"29","num_nodes":"31","size_leaf_vector":"1"}},{"base_weights":[-7.734718E-2,1.1940637E1,-5.041951E0,1.5297635E1,-3.8309572E0,-1.0591265E1,2.0399837E0,2.5765015E1,1.1102574E1,7.090677E0,-6.4932265E0,-1.5794925E1,-5.8710165E0,6.649806E0,-6.49391E0,2.856043E0,1.62977E0,4.4800174E-1,1.1871573E0,9.1596293E-1,1.920779E-1,-8.473719E-1,-2.533243E-1,-9.5992815E-1,-1.6132674E0,-2.3457083E-1,-7.903019E-1,2.8724992E-1,1.0458009E0,-2.3291403E-1,-9.491646E-1],"categories":[],"categories_nodes":[],"categories_segments":[],"categories_sizes":[],"default_left":[0,0,0,0,0,0,0,0,0,0,0,0,0,0,0,0,0,0,0,0,0,0,0,0,0,0,0,0,0,0,0],"id":22,"left_children":[1,3,5,7,9,11,13,15,17,19,21,23,25,27,29,-1,-1,-1,-1,-1,-1,-1,-1,-1,-1,-1,-1,-1,-1,-1,-1],"loss_changes":[8.329174E5,2.1612812E5,3.8826525E5,1.4747512E5,2.0893766E4,1.3595906E5,1.7081697E5,3.4958188E4,6.610209E4,3.6378838E3,9.263543E3,3.944575E4,3.9646164E4,5.9444273E4,3.4029777E4,0E0,0E0,0E0,0E0,0E0,0E0,0E0,0E0,0E0,0E0,0E0,0E0,0E0,0E0,0E0,0E0],"parents":[2147483647,0,0,1,1,2,2,3,3,4,4,5,5,6,6,7,7,8,8,9,9,10,10,11,11,12,12,13,13,14,14],"right_children":[2,4,6,8,10,12,14,16,18,20,22,24,26,28,30,-1,-1,-1,-1,-1,-1,-1,-1,-1,-1,-1,-1,-1,-1,-1,-1],"split_conditions":[2.043268E3,5.585E3,1.25E2,1.84629E3,-2.5881904E-1,1.658E3,7.840023E3,-9.721182E-1,1.6E2,-5E-1,1.5E1,5.96E3,5.136334E3,3.417494E4,5E-1,2.856043E0,1.62977E0,4.4800174E-1,1.1871573E0,9.1596293E-1,1.920779E-1,-8.473719E-1,-2.533243E-1,-9.5992815E-1,-1.6132674E0,-2.3457083E-1,-7.903019E-1,2.8724992E-1,1.0458009E0,-2.3291403E-1,-9.491646E-1],"split_indices":[18,16,26,17,20,9,17,24,26,20,3,16,18,19,21,0,0,0,0,0,0,0,0,0,0,0,0,0,0,0,0],"split_type":[0,0,0,0,0,0,0,0,0,0,0,0,0,0,0,0,0,0,0,0,0,0,0,0,0,0,0,0,0,0,0],"sum_hessian":[1.3958E4,4.08E3,9.878E3,3.364E3,7.16E2,5.538E3,4.34E3,9.61E2,2.403E3,1.4E2,5.76E2,2.633E3,2.905E3,2.818E3,1.522E3,1.34E2,8.27E2,1.334E3,1.069E3,5.8E1,8.2E1,1.94E2,3.82E2,2.048E3,5.85E2,1.984E3,9.21E2,2.157E3,6.61E2,1.052E3,4.7E2],"tree_param":{"num_deleted":"0","num_feature":"29","num_nodes":"31","size_leaf_vector":"1"}},{"base_weights":[2.4589717E-3,-6.586021E0,1.3233077E1,1.3634739E0,-9.8142185E0,1.9181345E1,8.519615E0,3.7622783E0,-1.1071776E1,-1.3625295E1,-5.417721E0,2.2092176E1,9.970975E0,7.086243E0,2.3798517E1,1.6025511E0,1.772614E-1,-4.4110036E-1,-9.370763E-1,-2.9126005E-2,-1.0784191E0,-4.8752597E-1,3.373852E-1,1.874661E0,1.1012726E0,8.935203E-1,-1.8430597E-1,2.9414856E-1,1.0226415E0,1.9650779E0,1.1065371E0],"categories":[],"categories_nodes":[],"categories_segments":[],"categories_sizes":[],"default_left":[0,0,0,0,0,0,0,0,0,0,0,0,0,0,0,0,0,0,0,0,0,0,0,0,0,0,0,0,0,0,0],"id":23,"left_children":[1,3,5,7,9,11,13,15,17,19,21,23,25,27,29,-1,-1,-1,-1,-1,-1,-1,-1,-1,-1,-1,-1,-1,-1,-1,-1],"loss_changes":[1.2235134E6,2.4047144E5,1.30656625E5,8.079067E4,1.11583875E5,5.506125E4,5.6881438E4,5.335711E4,4.7524844E3,8.394181E4,4.9064234E4,4.6274438E4,1.7533234E4,5.1642406E4,7.1719297E3,0E0,0E0,0E0,0E0,0E0,0E0,0E0,0E0,0E0,0E0,0E0,0E0,0E0,0E0,0E0,0E0],"parents":[2147483647,0,0,1,1,2,2,3,3,4,4,5,5,6,6,7,7,8,8,9,9,10,10,11,11,12,12,13,13,14,14],"right_children":[2,4,6,8,10,12,14,16,18,20,22,24,26,28,30,-1,-1,-1,-1,-1,-1,-1,-1,-1,-1,-1,-1,-1,-1,-1,-1],"split_conditions":[9.908E3,3.973691E3,3.156136E3,8.576E3,4.271E3,2.209E3,9.659258E-1,7.594558E3,1.588142E3,1.7475752E4,9.659258E-1,3.926E3,6.356E3,1.7546E4,1E0,1.6025511E0,1.772614E-1,-4.4110036E-1,-9.370763E-1,-2.9126005E-2,-1.0784191E0,-4.8752597E-1,3.373852E-1,1.874661E0,1.1012726E0,8.935203E-1,-1.8430597E-1,2.9414856E-1,1.0226415E0,1.9650779E0,1.1065371E0],"split_indices":[10,17,17,16,10,16,20,19,17,19,20,14,16,10,16,0,0,0,0,0,0,0,0,0,0,0,0,0,0,0,0],"split_type":[0,0,0,0,0,0,0,0,0,0,0,0,0,0,0,0,0,0,0,0,0,0,0,0,0,0,0,0,0,0,0],"sum_hessian":[1.4034E4,9.369E3,4.665E3,2.706E3,6.663E3,2.061E3,2.604E3,2.269E3,4.37E2,3.568E3,3.095E3,1.565E3,4.96E2,2.382E3,2.22E2,1.36E2,2.133E3,1.44E2,2.93E2,4.24E2,3.144E3,2.689E3,4.06E2,8.99E2,6.66E2,4.06E2,9E1,1.723E3,6.59E2,1.43E2,7.9E1],"tree_param":{"num_deleted":"0","num_feature":"29","num_nodes":"31","size_leaf_vector":"1"}},{"base_weights":[4.8250772E-2,-8.756606E0,8.54182E0,5.0379124E0,-1.0410974E1,2.667192E0,1.428208E1,-5.5741253E0,1.5131314E1,-1.4941134E1,-6.7533913E0,8.752771E0,-8.896216E-1,1.8006283E1,7.268449E0,2.9881415E-1,-1.4257731E0,1.830518E0,-5.0193913E-2,-8.947123E-1,-1.3830296E0,-1.9046019E-1,-7.728943E-1,1.820743E-1,8.5550725E-1,7.6461375E-2,-5.641243E-1,1.3908064E0,4.894179E-1,3.83349E-1,1.2635168E0],"categories":[],"categories_nodes":[],"categories_segments":[],"categories_sizes":[],"default_left":[0,0,0,0,0,0,0,0,0,0,0,0,0,0,0,0,0,0,0,0,0,0,0,0,0,0,0,0,0,0,0],"id":24,"left_children":[1,3,5,7,9,11,13,15,17,19,21,23,25,27,29,-1,-1,-1,-1,-1,-1,-1,-1,-1,-1,-1,-1,-1,-1,-1,-1],"loss_changes":[1.0472843E6,1.5697112E5,2.4033138E5,7.902566E4,1.0163519E5,7.62858E4,9.403206E4,5.2509027E4,6.603001E4,2.8267312E4,5.8743016E4,2.7708516E4,3.1623943E4,4.8149375E4,2.4091242E4,0E0,0E0,0E0,0E0,0E0,0E0,0E0,0E0,0E0,0E0,0E0,0E0,0E0,0E0,0E0,0E0],"parents":[2147483647,0,0,1,1,2,2,3,3,4,4,5,5,6,6,7,7,8,8,9,9,10,10,11,11,12,12,13,13,14,14],"right_children":[2,4,6,8,10,12,14,16,18,20,22,24,26,28,30,-1,-1,-1,-1,-1,-1,-1,-1,-1,-1,-1,-1,-1,-1,-1,-1],"split_conditions":[6.873E3,1.6530723E4,1.1709E4,0E0,3.51E3,2.4505861E4,3.29136E3,2.552009E3,7.0710677E-1,2.7149824E4,2.6305758E4,0E0,3.2336756E4,2.768E3,8.660254E-1,2.9881415E-1,-1.4257731E0,1.830518E0,-5.0193913E-2,-8.947123E-1,-1.3830296E0,-1.9046019E-1,-7.728943E-1,1.820743E-1,8.5550725E-1,7.6461375E-2,-5.641243E-1,1.3908064E0,4.894179E-1,3.83349E-1,1.2635168E0],"split_indices":[10,19,10,22,10,19,18,18,21,19,19,20,19,16,20,0,0,0,0,0,0,0,0,0,0,0,0,0,0,0,0],"split_type":[0,0,0,0,0,0,0,0,0,0,0,0,0,0,0,0,0,0,0,0,0,0,0,0,0,0,0,0,0,0,0],"sum_hessian":[1.4002E4,6.875E3,7.127E3,7.36E2,6.139E3,3.523E3,3.604E3,3.59E2,3.77E2,2.741E3,3.398E3,1.299E3,2.224E3,2.353E3,1.251E3,2.16E2,1.43E2,2.22E2,1.55E2,1.895E3,8.46E2,1.752E3,1.646E3,4.69E2,8.3E2,1.743E3,4.81E2,2.012E3,3.41E2,1.074E3,1.77E2],"tree_param":{"num_deleted":"0","num_feature":"29","num_nodes":"31","size_leaf_vector":"1"}},{"base_weights":[6.7034847E-4,-7.216391E0,9.421461E0,-3.122702E0,-1.1600065E1,5.038491E0,1.5380953E1,1.4403348E1,-4.1770835E0,-1.0313972E1,-1.921637E1,7.909126E0,-2.6368515E0,2.2551233E1,1.1838849E1,-6.1983723E-2,1.8420124E0,-7.030011E-1,-3.6440913E-2,-3.4971893E-1,-8.9848864E-1,-8.509833E-1,-1.5174688E0,1.1854868E0,4.3512985E-1,-2.519116E-1,8.05235E-1,1.9265753E0,1.2765363E0,7.053682E-1,1.5745275E0],"categories":[],"categories_nodes":[],"categories_segments":[],"categories_sizes":[],"default_left":[0,0,0,0,0,0,0,0,0,0,0,0,0,0,0,0,0,0,0,0,0,0,0,0,0,0,0,0,0,0,0],"id":25,"left_children":[1,3,5,7,9,11,13,15,17,19,21,23,25,27,29,-1,-1,-1,-1,-1,-1,-1,-1,-1,-1,-1,-1,-1,-1,-1,-1],"loss_changes":[9.52206E5,1.4227062E5,1.5860294E5,7.586151E4,3.7307625E4,7.718085E4,6.5106812E4,4.245449E4,8.299941E4,4.389278E4,9.329156E3,3.8847203E4,1.301693E4,1.7731031E4,3.21595E4,0E0,0E0,0E0,0E0,0E0,0E0,0E0,0E0,0E0,0E0,0E0,0E0,0E0,0E0,0E0,0E0],"parents":[2147483647,0,0,1,1,2,2,3,3,4,4,5,5,6,6,7,7,8,8,9,9,10,10,11,11,12,12,13,13,14,14],"right_children":[2,4,6,8,10,12,14,16,18,20,22,24,26,28,30,-1,-1,-1,-1,-1,-1,-1,-1,-1,-1,-1,-1,-1,-1,-1,-1],"split_conditions":[8.169E3,4.359537E3,1.3875E4,1.0126658E4,5.835E3,3.0260842E4,1.525331E3,-4.3388373E-1,4.059E3,8.403298E3,5.447534E3,2.0838537E4,9.659258E-1,2.051356E3,8.660254E-1,-6.1983723E-2,1.8420124E0,-7.030011E-1,-3.6440913E-2,-3.4971893E-1,-8.9848864E-1,-8.509833E-1,-1.5174688E0,1.1854868E0,4.3512985E-1,-2.519116E-1,8.05235E-1,1.9265753E0,1.2765363E0,7.053682E-1,1.5745275E0],"split_indices":[10,18,10,19,16,19,18,22,10,17,18,19,20,17,20,0,0,0,0,0,0,0,0,0,0,0,0,0,0,0,0],"split_type":[0,0,0,0,0,0,0,0,0,0,0,0,0,0,0,0,0,0,0,0,0,0,0,0,0,0,0,0,0,0,0],"sum_hessian":[1.4003E4,7.929E3,6.074E3,4.101E3,3.828E3,3.501E3,2.573E3,2.32E2,3.869E3,3.277E3,5.51E2,2.548E3,9.53E2,8.49E2,1.724E3,1.02E2,1.3E2,1.485E3,2.384E3,1.055E3,2.222E3,1.44E2,4.07E2,4.01E2,2.147E3,8.93E2,6E1,3.92E2,4.57E2,1.481E3,2.43E2],"tree_param":{"num_deleted":"0","num_feature":"29","num_nodes":"31","size_leaf_vector":"1"}},{"base_weights":[3.123036E-3,-5.2742233E0,1.1104274E1,-8.795587E0,-2.38357E-1,1.6802977E1,7.3790264E0,9.635788E0,-1.0143572E1,2.7598298E0,-5.7016506E0,1.9609896E1,8.81086E0,6.0777144E0,2.0258484E1,-6.658381E-1,1.2071924E0,-4.7543454E-1,-9.454763E-1,4.9658486E-1,3.5063468E-2,-4.6759775E-1,3.9047694E-1,1.672402E0,9.800985E-1,7.6401883E-1,-4.0951627E-1,3.1064793E-1,1.156996E0,1.6784073E0,7.512204E-1],"categories":[],"categories_nodes":[],"categories_segments":[],"categories_sizes":[],"default_left":[0,0,0,0,0,0,0,0,0,0,0,0,0,0,0,0,0,0,0,0,0,0,0,0,0,0,0,0,0,0,0],"id":26,"left_children":[1,3,5,7,9,11,13,15,17,19,21,23,25,27,29,-1,-1,-1,-1,-1,-1,-1,-1,-1,-1,-1,-1,-1,-1,-1,-1],"loss_changes":[8.20009E5,1.6823188E5,9.5618875E4,1.3880862E5,6.3979562E4,3.980297E4,4.5615188E4,5.5679992E4,5.855825E4,2.4688553E4,1.5310148E4,3.1314375E4,1.4405645E4,4.2429008E4,8.599273E3,0E0,0E0,0E0,0E0,0E0,0E0,0E0,0E0,0E0,0E0,0E0,0E0,0E0,0E0,0E0,0E0],"parents":[2147483647,0,0,1,1,2,2,3,3,4,4,5,5,6,6,7,7,8,8,9,9,10,10,11,11,12,12,13,13,14,14],"right_children":[2,4,6,8,10,12,14,16,18,20,22,24,26,28,30,-1,-1,-1,-1,-1,-1,-1,-1,-1,-1,-1,-1,-1,-1,-1,-1],"split_conditions":[1.0176E4,5.463E3,2.901764E3,1.3166102E4,2.7539469E4,1.935E3,9.659258E-1,9.2E1,2.5050508E4,2.1103621E4,9.659258E-1,3.85E3,7.002E3,2.0652E4,2.1E1,-6.658381E-1,1.2071924E0,-4.7543454E-1,-9.454763E-1,4.9658486E-1,3.5063468E-2,-4.6759775E-1,3.9047694E-1,1.672402E0,9.800985E-1,7.6401883E-1,-4.0951627E-1,3.1064793E-1,1.156996E0,1.6784073E0,7.512204E-1],"split_indices":[10,10,17,19,19,16,20,26,19,19,20,14,16,10,16,0,0,0,0,0,0,0,0,0,0,0,0,0,0,0,0],"split_type":[0,0,0,0,0,0,0,0,0,0,0,0,0,0,0,0,0,0,0,0,0,0,0,0,0,0,0,0,0,0,0],"sum_hessian":[1.3995E4,9.486E3,4.509E3,5.582E3,3.904E3,1.781E3,2.728E3,3.8E2,5.202E3,2.521E3,1.383E3,1.317E3,4.64E2,2.479E3,2.49E2,1.08E2,2.72E2,2.607E3,2.595E3,8.63E2,1.658E3,1.273E3,1.1E2,7.45E2,5.72E2,4.06E2,5.8E1,2.144E3,3.35E2,1.78E2,7.1E1],"tree_param":{"num_deleted":"0","num_feature":"29","num_nodes":"31","size_leaf_vector":"1"}},{"base_weights":[2.9623821E-2,8.786071E0,-3.73866E0,1.1872999E1,-9.2127043E-1,-8.631881E0,8.796907E-1,2.1553907E1,8.898513E0,8.903094E0,-3.9150357E0,-1.3753753E1,-5.583234E0,4.063976E0,-5.114006E0,1.9003617E0,9.998813E-1,1.2688747E-1,8.8266003E-1,7.7827644E-1,1.1444698E-1,-1.5634309E-1,-8.5960364E-1,-1.3605353E0,-8.5749185E-1,-2.2113687E-1,-6.388986E-1,-1.1442091E-1,6.225701E-1,-1.7905165E-1,-7.760463E-1],"categories":[],"categories_nodes":[],"categories_segments":[],"categories_sizes":[],"default_left":[0,0,0,0,0,0,0,0,0,0,0,0,0,0,0,0,0,0,0,0,0,0,0,0,0,0,0,0,0,0,0],"id":27,"left_children":[1,3,5,7,9,11,13,15,17,19,21,23,25,27,29,-1,-1,-1,-1,-1,-1,-1,-1,-1,-1,-1,-1,-1,-1,-1,-1],"loss_changes":[4.641326E5,1.2682659E5,2.2224242E5,9.2271E4,3.0093705E4,7.448353E4,9.65941E4,3.0275969E4,6.4609953E4,3.829582E3,1.1000411E4,1.4981469E4,2.5700688E4,9.0979375E4,2.677882E4,0E0,0E0,0E0,0E0,0E0,0E0,0E0,0E0,0E0,0E0,0E0,0E0,0E0,0E0,0E0,0E0],"parents":[2147483647,0,0,1,1,2,2,3,3,4,4,5,5,6,6,7,7,8,8,9,9,10,10,11,11,12,12,13,13,14,14],"right_children":[2,4,6,8,10,12,14,16,18,20,22,24,26,28,30,-1,-1,-1,-1,-1,-1,-1,-1,-1,-1,-1,-1,-1,-1,-1,-1],"split_conditions":[2.083049E3,3.999E3,1.11E2,1.678329E3,-2.5881904E-1,1.273E3,7.840023E3,3.85E3,-6.0505605E-1,7.637E3,1.023E4,9E1,4.993951E3,1.07381344E-1,5E-1,1.9003617E0,9.998813E-1,1.2688747E-1,8.8266003E-1,7.7827644E-1,1.1444698E-1,-1.5634309E-1,-8.5960364E-1,-1.3605353E0,-8.5749185E-1,-2.2113687E-1,-6.388986E-1,-1.1442091E-1,6.225701E-1,-1.7905165E-1,-7.760463E-1],"split_indices":[18,16,26,17,20,9,17,14,25,16,16,13,18,25,21,0,0,0,0,0,0,0,0,0,0,0,0,0,0,0,0],"split_type":[0,0,0,0,0,0,0,0,0,0,0,0,0,0,0,0,0,0,0,0,0,0,0,0,0,0,0,0,0,0,0],"sum_hessian":[1.4064E4,4.231E3,9.833E3,3.21E3,1.021E3,4.774E3,5.059E3,7.53E2,2.457E3,2.38E2,7.83E2,1.78E3,2.994E3,3.304E3,1.755E3,4.24E2,3.29E2,8.45E2,1.612E3,1.82E2,5.6E1,6.53E2,1.3E2,3.7E2,1.41E3,1.779E3,1.215E3,1.516E3,1.788E3,1.23E3,5.25E2],"tree_param":{"num_deleted":"0","num_feature":"29","num_nodes":"31","size_leaf_vector":"1"}},{"base_weights":[5.8115415E-2,-6.90766E0,6.563034E0,5.6344485E0,-8.117136E0,2.9087837E0,1.1989982E1,2.3691475E1,3.7352413E-1,-1.2884269E1,-5.876191E0,6.388789E0,-1.0110747E0,1.4399328E1,4.0477333E0,2.9930976E-1,2.0475647E0,-6.9411373E-1,6.421709E-1,-6.538247E-1,-1.109252E0,-2.3071209E-1,-6.462124E-1,7.21896E-1,2.5269982E-1,7.660652E-2,-4.3809626E-1,1.1587487E0,4.5867836E-1,4.7699603E-1,-2.4703789E-1],"categories":[],"categories_nodes":[],"categories_segments":[],"categories_sizes":[],"default_left":[0,0,0,0,0,0,0,0,0,0,0,0,0,0,0,0,0,0,0,0,0,0,0,0,0,0,0,0,0,0,0],"id":28,"left_children":[1,3,5,7,9,11,13,15,17,19,21,23,25,27,29,-1,-1,-1,-1,-1,-1,-1,-1,-1,-1,-1,-1,-1,-1,-1,-1],"loss_changes":[6.3309656E5,1.0239353E5,1.4324703E5,5.641892E4,6.566653E4,5.8922547E4,5.556878E4,1.4338578E4,4.183478E4,2.0500812E4,3.622911E4,2.4911008E4,2.2456941E4,3.7586625E4,1.423585E4,0E0,0E0,0E0,0E0,0E0,0E0,0E0,0E0,0E0,0E0,0E0,0E0,0E0,0E0,0E0,0E0],"parents":[2147483647,0,0,1,1,2,2,3,3,4,4,5,5,6,6,7,7,8,8,9,9,10,10,11,11,12,12,13,13,14,14],"right_children":[2,4,6,8,10,12,14,16,18,20,22,24,26,28,30,-1,-1,-1,-1,-1,-1,-1,-1,-1,-1,-1,-1,-1,-1,-1,-1],"split_conditions":[6.758E3,1.5739928E4,1.3164E4,-5E-1,2.992E3,2.687895E4,6.230364E3,1.07E2,0E0,2.4364287E4,2.6542242E4,1.388806E3,3.28017E4,1.935E3,5.900023E3,2.9930976E-1,2.0475647E0,-6.9411373E-1,6.421709E-1,-6.538247E-1,-1.109252E0,-2.3071209E-1,-6.462124E-1,7.21896E-1,2.5269982E-1,7.660652E-2,-4.3809626E-1,1.1587487E0,4.5867836E-1,4.7699603E-1,-2.4703789E-1],"split_indices":[10,19,10,20,10,19,17,26,22,19,19,18,19,16,18,0,0,0,0,0,0,0,0,0,0,0,0,0,0,0,0],"split_type":[0,0,0,0,0,0,0,0,0,0,0,0,0,0,0,0,0,0,0,0,0,0,0,0,0,0,0,0,0,0,0],"sum_hessian":[1.397E4,6.746E3,7.224E3,5.93E2,6.153E3,4.318E3,2.906E3,1.33E2,4.6E2,1.966E3,4.187E3,2.287E3,2.031E3,2.229E3,6.77E2,3E1,1.03E2,2.12E2,2.48E2,8.97E2,1.069E3,2.368E3,1.819E3,9.47E2,1.34E3,1.45E3,5.81E2,1.748E3,4.81E2,4.96E2,1.81E2],"tree_param":{"num_deleted":"0","num_feature":"29","num_nodes":"31","size_leaf_vector":"1"}},{"base_weights":[-3.7289552E-2,-4.2669616E0,9.624741E0,-4.186193E-1,-7.799881E0,1.924632E1,7.911995E0,1.1310003E0,-8.776679E0,-1.0067109E1,-4.472147E0,2.297566E1,1.2085932E1,6.458935E0,1.617607E1,5.265762E-1,-5.755106E-2,-5.2776986E-1,-1.284088E0,-1.2926175E-1,-8.1259733E-1,-4.262476E-1,1.5891445E-1,1.9404279E0,1.3291283E0,9.801657E-1,-2.0810391E-1,3.4188083E-1,1.0303277E0,1.3226861E0,3.1788602E-1],"categories":[],"categories_nodes":[],"categories_segments":[],"categories_sizes":[],"default_left":[0,0,0,0,0,0,0,0,0,0,0,0,0,0,0,0,0,0,0,0,0,0,0,0,0,0,0,0,0,0,0],"id":29,"left_children":[1,3,5,7,9,11,13,15,17,19,21,23,25,27,29,-1,-1,-1,-1,-1,-1,-1,-1,-1,-1,-1,-1,-1,-1,-1,-1],"loss_changes":[5.735307E5,1.3270605E5,7.0263625E4,6.0533824E4,3.835E4,1.694575E4,4.347303E4,4.9229266E4,8.513523E3,3.832178E4,2.2517836E4,7.4774375E3,6.4773574E3,4.009942E4,1.7063031E4,0E0,0E0,0E0,0E0,0E0,0E0,0E0,0E0,0E0,0E0,0E0,0E0,0E0,0E0,0E0,0E0],"parents":[2147483647,0,0,1,1,2,2,3,3,4,4,5,5,6,6,7,7,8,8,9,9,10,10,11,11,12,12,13,13,14,14],"right_children":[2,4,6,8,10,12,14,16,18,20,22,24,26,28,30,-1,-1,-1,-1,-1,-1,-1,-1,-1,-1,-1,-1,-1,-1,-1,-1],"split_conditions":[1.0493E4,3.726025E3,8.41604E2,7.637E3,4.597E3,1.256E3,2.0652E4,3.217E3,4.918E3,-5E-1,8.660254E-1,5.69099E2,6.722E3,8.660254E-1,1.733E3,5.265762E-1,-5.755106E-2,-5.2776986E-1,-1.284088E0,-1.2926175E-1,-8.1259733E-1,-4.262476E-1,1.5891445E-1,1.9404279E0,1.3291283E0,9.801657E-1,-2.0810391E-1,3.4188083E-1,1.0303277E0,1.3226861E0,3.1788602E-1],"split_indices":[10,18,18,16,10,16,10,14,14,20,20,18,16,20,16,0,0,0,0,0,0,0,0,0,0,0,0,0,0,0,0],"split_type":[0,0,0,0,0,0,0,0,0,0,0,0,0,0,0,0,0,0,0,0,0,0,0,0,0,0,0,0,0,0,0],"sum_hessian":[1.4032E4,9.76E3,4.272E3,4.672E3,5.088E3,6.44E2,3.628E3,3.942E3,7.3E2,3.025E3,2.063E3,4.22E2,2.22E2,3.087E3,5.41E2,9.22E2,3.02E3,6.48E2,8.2E1,4.78E2,2.547E3,1.664E3,3.99E2,1.9E2,2.32E2,1.97E2,2.5E1,2.594E3,4.93E2,4.38E2,1.03E2],"tree_param":{"num_deleted":"0","num_feature":"29","num_nodes":"31","size_leaf_vector":"1"}},{"base_weights":[3.3606812E-2,6.5218697E0,-3.4862747E0,9.037639E0,-1.5740736E0,-6.788996E0,1.1334057E0,1.8319523E1,6.7064667E0,7.973974E0,-4.386176E0,-1.0597162E1,-4.3488703E0,3.1016958E0,-6.106049E0,1.6140575E0,8.516012E-1,6.948312E-1,1.3099504E-1,8.1928515E-1,2.0055237E-1,-9.608615E-2,-5.552699E-1,-6.393571E-1,-1.0908006E0,-3.6984238E-1,2.1153803E-1,4.1757202E-1,-1.9051982E-1,1.6177775E-1,-5.931021E-1],"categories":[],"categories_nodes":[],"categories_segments":[],"categories_sizes":[],"default_left":[0,0,0,0,0,0,0,0,0,0,0,0,0,0,0,0,0,0,0,0,0,0,0,0,0,0,0,0,0,0,0],"id":30,"left_children":[1,3,5,7,9,11,13,15,17,19,21,23,25,27,29,-1,-1,-1,-1,-1,-1,-1,-1,-1,-1,-1,-1,-1,-1,-1,-1],"loss_changes":[3.207813E5,1.0062986E5,1.389427E5,8.142925E4,3.1503244E4,4.9296453E4,5.4123676E4,2.176361E4,4.6901953E4,5.054502E3,9.671158E3,1.4983125E4,2.2321707E4,4.981086E4,1.6196355E4,0E0,0E0,0E0,0E0,0E0,0E0,0E0,0E0,0E0,0E0,0E0,0E0,0E0,0E0,0E0,0E0],"parents":[2147483647,0,0,1,1,2,2,3,3,4,4,5,5,6,6,7,7,8,8,9,9,10,10,11,11,12,12,13,13,14,14],"right_children":[2,4,6,8,10,12,14,16,18,20,22,24,26,28,30,-1,-1,-1,-1,-1,-1,-1,-1,-1,-1,-1,-1,-1,-1,-1,-1],"split_conditions":[2.364699E3,4.036E3,1.28E2,1.678329E3,-2.5881904E-1,1.323E3,7.0710677E-1,3.844E3,7.0710677E-1,-5E-1,4.127E3,5.96E3,9.659258E-1,8.403298E3,3.120297E3,1.6140575E0,8.516012E-1,6.948312E-1,1.3099504E-1,8.1928515E-1,2.0055237E-1,-9.608615E-2,-5.552699E-1,-6.393571E-1,-1.0908006E0,-3.6984238E-1,2.1153803E-1,4.1757202E-1,-1.9051982E-1,1.6177775E-1,-5.931021E-1],"split_indices":[18,16,26,17,20,9,21,14,21,20,14,16,20,17,17,0,0,0,0,0,0,0,0,0,0,0,0,0,0,0,0],"split_type":[0,0,0,0,0,0,0,0,0,0,0,0,0,0,0,0,0,0,0,0,0,0,0,0,0,0,0,0,0,0,0],"sum_hessian":[1.4044E4,4.939E3,9.105E3,3.768E3,1.171E3,5.309E3,3.796E3,7.55E2,3.013E3,2.66E2,9.05E2,2.072E3,3.237E3,2.985E3,8.11E2,4.25E2,3.3E2,1.808E3,1.205E3,1.53E2,1.13E2,4.9E2,4.15E2,1.604E3,4.68E2,2.873E3,3.64E2,2.001E3,9.84E2,1.78E2,6.33E2],"tree_param":{"num_deleted":"0","num_feature":"29","num_nodes":"31","size_leaf_vector":"1"}},{"base_weights":[-5.4030906E-2,-5.9552155E0,5.3700185E0,8.125908E0,-6.699116E0,2.5218368E0,1.0745283E1,2.547825E1,3.7255557E0,-9.33151E0,-4.06627E0,4.540905E0,-2.5979886E0,1.3303808E1,4.453117E0,3.9896104E-1,2.3121743E0,1.471681E0,-1.22551285E-1,-7.2674274E-1,7.7851996E-2,-9.148542E-2,-5.215958E-1,1.8646279E-1,6.271153E-1,-9.9232495E-2,-7.0164394E-1,7.96611E-1,1.413092E0,4.419372E-1,-3.0040056E-1],"categories":[],"categories_nodes":[],"categories_segments":[],"categories_sizes":[],"default_left":[0,0,0,0,0,0,0,0,0,0,0,0,0,0,0,0,0,0,0,0,0,0,0,0,0,0,0,0,0,0,0],"id":31,"left_children":[1,3,5,7,9,11,13,15,17,19,21,23,25,27,29,-1,-1,-1,-1,-1,-1,-1,-1,-1,-1,-1,-1,-1,-1,-1,-1],"loss_changes":[4.4824444E5,7.031E4,1.1168789E5,2.5636902E4,4.4117344E4,4.933096E4,4.0621906E4,9.969578E3,2.5614463E4,3.495553E4,2.9758734E4,2.8354805E4,1.1818318E4,2.3550656E4,1.1934739E4,0E0,0E0,0E0,0E0,0E0,0E0,0E0,0E0,0E0,0E0,0E0,0E0,0E0,0E0,0E0,0E0],"parents":[2147483647,0,0,1,1,2,2,3,3,4,4,5,5,6,6,7,7,8,8,9,9,10,10,11,11,12,12,13,13,14,14],"right_children":[2,4,6,8,10,12,14,16,18,20,22,24,26,28,30,-1,-1,-1,-1,-1,-1,-1,-1,-1,-1,-1,-1,-1,-1,-1,-1],"split_conditions":[6.652E3,1.1441897E4,1.4014E4,2.345808E3,3.659E3,2.974374E4,4.064317E3,1.48E2,-7.0710677E-1,1.8E2,2.6584496E4,1.0679E4,4.408E3,2.1739E4,6.822401E3,3.9896104E-1,2.3121743E0,1.471681E0,-1.22551285E-1,-7.2674274E-1,7.7851996E-2,-9.148542E-2,-5.215958E-1,1.8646279E-1,6.271153E-1,-9.9232495E-2,-7.0164394E-1,7.96611E-1,1.413092E0,4.419372E-1,-3.0040056E-1],"split_indices":[10,19,10,17,10,19,18,27,20,28,19,10,16,10,18,0,0,0,0,0,0,0,0,0,0,0,0,0,0,0,0],"split_type":[0,0,0,0,0,0,0,0,0,0,0,0,0,0,0,0,0,0,0,0,0,0,0,0,0,0,0,0,0,0,0],"sum_hessian":[1.4002E4,6.706E3,7.296E3,3.36E2,6.37E3,4.77E3,2.526E3,6.7E1,2.69E2,3.184E3,3.186E3,3.421E3,1.349E3,1.795E3,7.31E2,1.9E1,4.8E1,6.4E1,2.05E2,2.893E3,2.91E2,1.756E3,1.43E3,2.402E3,1.019E3,1.165E3,1.84E2,1.405E3,3.9E2,6.03E2,1.28E2],"tree_param":{"num_deleted":"0","num_feature":"29","num_nodes":"31","size_leaf_vector":"1"}},{"base_weights":[1.0798277E-1,-3.3962288E0,8.258063E0,-5.97167E0,3.1263453E-1,1.429195E1,6.1966715E0,1.0447844E1,-6.630335E0,4.757822E0,-1.8910047E0,1.796234E1,6.9726763E0,4.8032694E0,1.3896803E1,-1.081359E0,9.7608244E-1,-4.0547445E-1,-1.0052819E0,1.340394E-1,6.433786E-1,-4.4415385E-2,-6.308882E-1,1.1002189E0,1.6742407E0,6.055186E-1,-4.6354762E-1,2.3618288E-1,8.8237566E-1,1.3175898E0,4.2545727E-1],"categories":[],"categories_nodes":[],"categories_segments":[],"categories_sizes":[],"default_left":[0,0,0,0,0,0,0,0,0,0,0,0,0,0,0,0,0,0,0,0,0,0,0,0,0,0,0,0,0,0,0],"id":32,"left_children":[1,3,5,7,9,11,13,15,17,19,21,23,25,27,29,-1,-1,-1,-1,-1,-1,-1,-1,-1,-1,-1,-1,-1,-1,-1,-1],"loss_changes":[3.994057E5,9.342008E4,5.2213875E4,6.2493188E4,3.9279543E4,2.861961E4,3.3580406E4,2.040509E4,3.5865188E4,1.6732682E4,2.3984816E4,9.1426875E3,8.244826E3,2.9585453E4,1.8372492E4,0E0,0E0,0E0,0E0,0E0,0E0,0E0,0E0,0E0,0E0,0E0,0E0,0E0,0E0,0E0,0E0],"parents":[2147483647,0,0,1,1,2,2,3,3,4,4,5,5,6,6,7,7,8,8,9,9,10,10,11,11,12,12,13,13,14,14],"right_children":[2,4,6,8,10,12,14,16,18,20,22,24,26,28,30,-1,-1,-1,-1,-1,-1,-1,-1,-1,-1,-1,-1,-1,-1,-1,-1],"split_conditions":[1.0679E4,5.648E3,2.181298E3,9.090603E3,2.33842E4,1.398E3,8.660254E-1,1.0004E3,3.1099332E4,7.0710677E-1,7.0710677E-1,7.0710677E-1,7.34E3,2.0652E4,1E2,-1.081359E0,9.7608244E-1,-4.0547445E-1,-1.0052819E0,1.340394E-1,6.433786E-1,-4.4415385E-2,-6.308882E-1,1.1002189E0,1.6742407E0,6.055186E-1,-4.6354762E-1,2.3618288E-1,8.8237566E-1,1.3175898E0,4.2545727E-1],"split_indices":[10,10,17,19,19,16,20,7,19,20,21,20,16,10,16,0,0,0,0,0,0,0,0,0,0,0,0,0,0,0,0],"split_type":[0,0,0,0,0,0,0,0,0,0,0,0,0,0,0,0,0,0,0,0,0,0,0,0,0,0,0,0,0,0,0],"sum_hessian":[1.3983E4,9.779E3,4.204E3,5.771E3,4.008E3,1.069E3,3.135E3,2.22E2,5.549E3,1.328E3,2.68E3,7.11E2,3.58E2,2.656E3,4.79E2,2.6E1,1.96E2,5.008E3,5.41E2,8.1E2,5.18E2,2.279E3,4.01E2,5.19E2,1.92E2,3.19E2,3.9E1,2.246E3,4.1E2,2.93E2,1.86E2],"tree_param":{"num_deleted":"0","num_feature":"29","num_nodes":"31","size_leaf_vector":"1"}},{"base_weights":[-1.7333252E-2,-5.163223E0,4.8153234E0,4.326197E0,-6.050971E0,1.4578662E0,8.191045E0,-5.0279603E0,1.1942194E1,-1.0308655E1,-4.341133E0,6.750167E0,-3.158818E-1,1.0699795E1,3.0969558E0,1.7251383E-1,-1.2551962E0,2.045062E0,5.0766885E-1,-5.399376E-1,-9.3714595E-1,-2.5020105E-1,-8.2281154E-1,6.522645E-1,1.7865609E-1,-9.5505364E-2,4.763095E-1,8.888315E-1,3.8543615E-1,1.4114884E-1,1.0038042E0],"categories":[],"categories_nodes":[],"categories_segments":[],"categories_sizes":[],"default_left":[0,0,0,0,0,0,0,0,0,0,0,0,0,0,0,0,0,0,0,0,0,0,0,0,0,0,0,0,0,0,0],"id":33,"left_children":[1,3,5,7,9,11,13,15,17,19,21,23,25,27,29,-1,-1,-1,-1,-1,-1,-1,-1,-1,-1,-1,-1,-1,-1,-1,-1],"loss_changes":[3.477834E5,5.708339E4,8.172764E4,4.1380027E4,4.5047094E4,3.3955727E4,4.5922875E4,2.527733E4,2.5709836E4,1.4072875E4,2.509021E4,9.764219E3,2.0240734E4,2.4924969E4,1.4403533E4,0E0,0E0,0E0,0E0,0E0,0E0,0E0,0E0,0E0,0E0,0E0,0E0,0E0,0E0,0E0,0E0],"parents":[2147483647,0,0,1,1,2,2,3,3,4,4,5,5,6,6,7,7,8,8,9,9,10,10,11,11,12,12,13,13,14,14],"right_children":[2,4,6,8,10,12,14,16,18,20,22,24,26,28,30,-1,-1,-1,-1,-1,-1,-1,-1,-1,-1,-1,-1,-1,-1,-1,-1],"split_conditions":[6.758E3,1.5739928E4,1.1709E4,1.21E2,2.863E3,2.2479693E4,3.468648E3,2.728635E3,1.0045E3,2.5405035E4,3.1480158E4,3.844E3,9.659258E-1,1.235E3,9.659258E-1,1.7251383E-1,-1.2551962E0,2.045062E0,5.0766885E-1,-5.399376E-1,-9.3714595E-1,-2.5020105E-1,-8.2281154E-1,6.522645E-1,1.7865609E-1,-9.5505364E-2,4.763095E-1,8.888315E-1,3.8543615E-1,1.4114884E-1,1.0038042E0],"split_indices":[10,19,10,26,10,19,18,18,7,19,19,14,20,16,20,0,0,0,0,0,0,0,0,0,0,0,0,0,0,0,0],"split_type":[0,0,0,0,0,0,0,0,0,0,0,0,0,0,0,0,0,0,0,0,0,0,0,0,0,0,0,0,0,0,0],"sum_hessian":[1.3983E4,6.772E3,7.211E3,5.79E2,6.193E3,3.616E3,3.595E3,2.6E2,3.19E2,1.773E3,4.42E3,9.07E2,2.709E3,2.408E3,1.187E3,1.65E2,9.5E1,6.7E1,2.52E2,9.64E2,8.09E2,4.007E3,4.13E2,5.62E2,3.45E2,2.362E3,3.47E2,1.738E3,6.7E2,1.084E3,1.03E2],"tree_param":{"num_deleted":"0","num_feature":"29","num_nodes":"31","size_leaf_vector":"1"}},{"base_weights":[4.363008E-2,-2.9234283E0,7.3173213E0,-5.633471E0,-3.7369284E-1,6.126923E0,1.5345871E1,2.9773169E0,-7.057484E0,3.9324317E0,-2.0835514E0,8.663969E0,1.7612071E0,1.7456554E1,2.7574375E0,-5.833841E-1,8.392189E-1,-8.796244E-1,-4.0710524E-1,3.88057E-1,-2.0201842E-1,-5.3997718E-2,-5.2332413E-1,5.069355E-1,9.8441637E-1,-1.3398814E-1,3.3086926E-1,1.344625E0,8.735794E-1,5.9821916E-1,-2.5022975E-1],"categories":[],"categories_nodes":[],"categories_segments":[],"categories_sizes":[],"default_left":[0,0,0,0,0,0,0,0,0,0,0,0,0,0,0,0,0,0,0,0,0,0,0,0,0,0,0,0,0,0,0],"id":34,"left_children":[1,3,5,7,9,11,13,15,17,19,21,23,25,27,29,-1,-1,-1,-1,-1,-1,-1,-1,-1,-1,-1,-1,-1,-1,-1,-1],"loss_changes":[3.009318E5,6.8433414E4,3.8516734E4,5.8890312E4,3.758823E4,3.897225E4,1.3794727E4,6.961809E4,2.8107422E4,1.5956846E4,2.5849152E4,1.6988562E4,1.4123486E4,3.6496719E3,2.8163003E3,0E0,0E0,0E0,0E0,0E0,0E0,0E0,0E0,0E0,0E0,0E0,0E0,0E0,0E0,0E0,0E0],"parents":[2147483647,0,0,1,1,2,2,3,3,4,4,5,5,6,6,7,7,8,8,9,9,10,10,11,11,12,12,13,13,14,14],"right_children":[2,4,6,8,10,12,14,16,18,20,22,24,26,28,30,-1,-1,-1,-1,-1,-1,-1,-1,-1,-1,-1,-1,-1,-1,-1,-1],"split_conditions":[1.0861E4,4.73E3,2.1451E4,4.7E1,2.2479693E4,3.3155992E4,3.8E1,0E0,2.427E3,4.486E3,7.0710677E-1,8.660254E-1,1.6341E4,4.28E3,2.946E3,-5.833841E-1,8.392189E-1,-8.796244E-1,-4.0710524E-1,3.88057E-1,-2.0201842E-1,-5.3997718E-2,-5.2332413E-1,5.069355E-1,9.8441637E-1,-1.3398814E-1,3.3086926E-1,1.344625E0,8.735794E-1,5.9821916E-1,-2.5022975E-1],"split_indices":[10,10,10,13,19,19,5,22,10,14,21,20,10,14,16,0,0,0,0,0,0,0,0,0,0,0,0,0,0,0,0],"split_type":[0,0,0,0,0,0,0,0,0,0,0,0,0,0,0,0,0,0,0,0,0,0,0,0,0,0,0,0,0,0,0],"sum_hessian":[1.3942E4,9.903E3,4.039E3,4.8E3,5.103E3,3.519E3,5.2E2,6.81E2,4.119E3,1.45E3,3.653E3,2.225E3,1.294E3,4.45E2,7.5E1,3.02E2,3.79E2,7.56E2,3.363E3,1.173E3,2.77E2,2.939E3,7.14E2,1.763E3,4.62E2,5.78E2,7.16E2,3.27E2,1.18E2,3.9E1,3.6E1],"tree_param":{"num_deleted":"0","num_feature":"29","num_nodes":"31","size_leaf_vector":"1"}},{"base_weights":[3.4232955E-2,-4.314482E0,4.2482233E0,2.3147864E0,-5.134399E0,2.8381095E0,1.0699609E1,2.049861E1,-1.5792245E0,-3.6022317E0,-8.69926E0,4.1344085E0,-2.8710604E0,1.175705E1,-2.372414E0,5.6807977E-1,1.8477755E0,-6.599093E-1,1.11885436E-1,-3.2373428E-1,1.4428174E-1,-8.7201214E-1,-4.801927E-1,4.474833E-1,1.3035311E-1,-3.1920308E-1,3.9785084E-1,1.0541916E0,5.8806074E-1,1.0814877E-1,-3.9577523E-1],"categories":[],"categories_nodes":[],"categories_segments":[],"categories_sizes":[],"default_left":[0,0,0,0,0,0,0,0,0,0,0,0,0,0,0,0,0,0,0,0,0,0,0,0,0,0,0,0,0,0,0],"id":35,"left_children":[1,3,5,7,9,11,13,15,17,19,21,23,25,27,29,-1,-1,-1,-1,-1,-1,-1,-1,-1,-1,-1,-1,-1,-1,-1,-1],"loss_changes":[2.58572E5,3.7755664E4,6.5159945E4,5.4200684E4,3.3723484E4,4.354334E4,1.779039E4,9.645605E3,1.5750942E4,2.5050164E4,1.2750734E4,2.4586758E4,1.5760485E4,1.3053203E4,1.2557119E3,0E0,0E0,0E0,0E0,0E0,0E0,0E0,0E0,0E0,0E0,0E0,0E0,0E0,0E0,0E0,0E0],"parents":[2147483647,0,0,1,1,2,2,3,3,4,4,5,5,6,6,7,7,8,8,9,9,10,10,11,11,12,12,13,13,14,14],"right_children":[2,4,6,8,10,12,14,16,18,20,22,24,26,28,30,-1,-1,-1,-1,-1,-1,-1,-1,-1,-1,-1,-1,-1,-1,-1,-1],"split_conditions":[6.873E3,-7.0710677E-1,1.8013E4,5.2E1,5.900023E3,5.136334E3,3.317E3,1.49E2,5E0,9.659258E-1,2.7E3,3.85E3,8.660254E-1,3.883E3,3.609982E3,5.6807977E-1,1.8477755E0,-6.599093E-1,1.11885436E-1,-3.2373428E-1,1.4428174E-1,-8.7201214E-1,-4.801927E-1,4.474833E-1,1.3035311E-1,-3.1920308E-1,3.9785084E-1,1.0541916E0,5.8806074E-1,1.0814877E-1,-3.9577523E-1],"split_indices":[10,20,10,13,18,18,16,26,4,20,10,14,20,14,17,0,0,0,0,0,0,0,0,0,0,0,0,0,0,0,0],"split_type":[0,0,0,0,0,0,0,0,0,0,0,0,0,0,0,0,0,0,0,0,0,0,0,0,0,0,0,0,0,0,0],"sum_hessian":[1.4108E4,6.943E3,7.165E3,7.64E2,6.179E3,5.881E3,1.284E3,1.34E2,6.3E2,4.323E3,1.856E3,4.793E3,1.088E3,1.188E3,9.6E1,4.4E1,9E1,1.81E2,4.49E2,3.662E3,6.61E2,6.08E2,1.248E3,2.403E3,2.39E3,9.09E2,1.79E2,5.97E2,5.91E2,4.4E1,5.2E1],"tree_param":{"num_deleted":"0","num_feature":"29","num_nodes":"31","size_leaf_vector":"1"}},{"base_weights":[4.008263E-2,-2.716427E0,6.0597377E0,1.8077549E0,-4.1651597E0,1.1440001E1,4.2557883E0,1.4946311E1,9.3741786E-1,-3.2811677E0,-1.11649E1,1.4654406E1,6.4667993E0,5.4975405E0,-1.4028832E0,3.4941635E-1,1.7478826E0,1.6248955E-1,-3.752437E-1,-6.910962E-2,-4.7014126E-1,-7.167387E-1,-1.2189276E0,1.311016E0,6.4428246E-1,5.700281E-1,-2.258933E-1,4.82531E-1,5.7981983E-3,-4.923129E-1,6.985864E-2],"categories":[],"categories_nodes":[],"categories_segments":[],"categories_sizes":[],"default_left":[0,0,0,0,0,0,0,0,0,0,0,0,0,0,0,0,0,0,0,0,0,0,0,0,0,0,0,0,0,0,0],"id":36,"left_children":[1,3,5,7,9,11,13,15,17,19,21,23,25,27,29,-1,-1,-1,-1,-1,-1,-1,-1,-1,-1,-1,-1,-1,-1,-1,-1],"loss_changes":[2.3281961E5,6.308642E4,4.272428E4,2.668649E4,4.507164E4,1.7585406E4,2.3209797E4,1.4343135E4,1.9108334E4,5.100722E4,4.547422E3,1.4728203E4,7.111914E3,2.046543E4,8.0498384E3,0E0,0E0,0E0,0E0,0E0,0E0,0E0,0E0,0E0,0E0,0E0,0E0,0E0,0E0,0E0,0E0],"parents":[2147483647,0,0,1,1,2,2,3,3,4,4,5,5,6,6,7,7,8,8,9,9,10,10,11,11,12,12,13,13,14,14],"right_children":[2,4,6,8,10,12,14,16,18,20,22,24,26,28,30,-1,-1,-1,-1,-1,-1,-1,-1,-1,-1,-1,-1,-1,-1,-1,-1],"split_conditions":[1.0252E4,3.425545E3,2.158872E3,1.0126658E4,6.47E3,7.33E2,5.485257E3,9.8E0,8.752E3,7.0710677E-1,3.3300344E4,3.834E3,6.297E3,4.41E3,1.07E2,3.4941635E-1,1.7478826E0,1.6248955E-1,-3.752437E-1,-6.910962E-2,-4.7014126E-1,-7.167387E-1,-1.2189276E0,1.311016E0,6.4428246E-1,5.700281E-1,-2.258933E-1,4.82531E-1,5.7981983E-3,-4.923129E-1,6.985864E-2],"split_indices":[10,17,17,19,16,16,18,0,16,21,19,14,16,14,27,0,0,0,0,0,0,0,0,0,0,0,0,0,0,0,0],"split_type":[0,0,0,0,0,0,0,0,0,0,0,0,0,0,0,0,0,0,0,0,0,0,0,0,0,0,0,0,0,0,0],"sum_hessian":[1.4029E4,9.623E3,4.406E3,2.334E3,7.289E3,1.105E3,3.301E3,1.44E2,2.19E3,6.473E3,8.16E2,6.7E2,4.35E2,2.707E3,5.94E2,7.3E1,7.1E1,1.796E3,3.94E2,3.882E3,2.591E3,7.13E2,1.03E2,3.82E2,2.88E2,3.71E2,6.4E1,2.152E3,5.55E2,1.77E2,4.17E2],"tree_param":{"num_deleted":"0","num_feature":"29","num_nodes":"31","size_leaf_vector":"1"}},{"base_weights":[5.8447126E-2,-3.9597857E0,3.7418664E0,3.0515568E0,-4.835835E0,1.843255E0,7.469927E0,1.740781E1,-1.9204113E0,-8.727413E0,-3.3758252E0,3.0027938E0,-4.223233E0,8.545115E0,-9.70067E-1,1.7087826E-1,1.5962738E0,-6.5279603E-1,3.9193553E-1,-5.283413E-1,-8.508106E-1,-1.8892892E-1,-7.2954607E-1,5.6414235E-1,1.4467622E-1,-2.0658205E-1,-7.5545686E-1,6.754298E-1,-4.4781743E-3,5.835851E-1,-2.2615571E-1],"categories":[],"categories_nodes":[],"categories_segments":[],"categories_sizes":[],"default_left":[0,0,0,0,0,0,0,0,0,0,0,0,0,0,0,0,0,0,0,0,0,0,0,0,0,0,0,0,0,0,0],"id":37,"left_children":[1,3,5,7,9,11,13,15,17,19,21,23,25,27,29,-1,-1,-1,-1,-1,-1,-1,-1,-1,-1,-1,-1,-1,-1,-1,-1],"loss_changes":[2.0768534E5,4.1235625E4,5.180518E4,5.32822E4,3.3867703E4,3.4143234E4,2.2422594E4,1.545034E4,3.0956695E4,6.4856953E3,2.0670047E4,1.9264371E4,6.4774766E3,2.0822672E4,5.918251E3,0E0,0E0,0E0,0E0,0E0,0E0,0E0,0E0,0E0,0E0,0E0,0E0,0E0,0E0,0E0,0E0],"parents":[2147483647,0,0,1,1,2,2,3,3,4,4,5,5,6,6,7,7,8,8,9,9,10,10,11,11,12,12,13,13,14,14],"right_children":[2,4,6,8,10,12,14,16,18,20,22,24,26,28,30,-1,-1,-1,-1,-1,-1,-1,-1,-1,-1,-1,-1,-1,-1,-1,-1],"split_conditions":[6.652E3,1.6530723E4,1.4124E4,-2.5881904E-1,2.812E3,3.2120346E4,2.818E3,1.1E2,0E0,2.8019916E4,3.1643219E4,2.0838537E4,3.235E3,5.756147E3,3.09157E4,1.7087826E-1,1.5962738E0,-6.5279603E-1,3.9193553E-1,-5.283413E-1,-8.508106E-1,-1.8892892E-1,-7.2954607E-1,5.6414235E-1,1.4467622E-1,-2.0658205E-1,-7.5545686E-1,6.754298E-1,-4.4781743E-3,5.835851E-1,-2.2615571E-1],"split_indices":[10,19,10,20,10,19,16,26,22,19,19,19,16,18,19,0,0,0,0,0,0,0,0,0,0,0,0,0,0,0,0],"split_type":[0,0,0,0,0,0,0,0,0,0,0,0,0,0,0,0,0,0,0,0,0,0,0,0,0,0,0,0,0,0,0],"sum_hessian":[1.403E4,6.71E3,7.32E3,7.45E2,5.965E3,4.851E3,2.469E3,1.91E2,5.54E2,1.626E3,4.339E3,4.073E3,7.78E2,2.19E3,2.79E2,5.1E1,1.4E2,2.79E2,2.75E2,1.212E3,4.14E2,3.96E3,3.79E2,6.35E2,3.438E3,6.53E2,1.25E2,1.941E3,2.49E2,5.4E1,2.25E2],"tree_param":{"num_deleted":"0","num_feature":"29","num_nodes":"31","size_leaf_vector":"1"}},{"base_weights":[-3.8910262E-2,-2.2690742E0,5.350977E0,2.0256407E0,-3.642831E0,1.2654419E1,4.1769476E0,1.5983395E1,1.3305188E0,8.816008E-1,-4.4871516E0,1.5670348E1,8.021108E0,3.3392506E0,1.2256184E1,1.5244137E0,4.630631E-1,-5.0367147E-1,1.5420729E-1,1.500601E0,-4.9631514E-2,-3.762795E-1,3.9626364E-2,1.6130612E0,9.12478E-1,1.431845E0,4.4609582E-1,1.8143915E-1,8.975541E-1,1.1697022E0,3.7668845E-1],"categories":[],"categories_nodes":[],"categories_segments":[],"categories_sizes":[],"default_left":[0,0,0,0,0,0,0,0,0,0,0,0,0,0,0,0,0,0,0,0,0,0,0,0,0,0,0,0,0,0,0],"id":38,"left_children":[1,3,5,7,9,11,13,15,17,19,21,23,25,27,29,-1,-1,-1,-1,-1,-1,-1,-1,-1,-1,-1,-1,-1,-1,-1,-1],"loss_changes":[1.6859727E5,5.8540242E4,3.514511E4,2.3312695E4,2.8719469E4,7.8111484E3,2.3903922E4,6.0434414E3,1.7064365E4,3.869493E4,2.843864E4,6.3632266E3,4.5012E3,2.2692238E4,1.0075648E4,0E0,0E0,0E0,0E0,0E0,0E0,0E0,0E0,0E0,0E0,0E0,0E0,0E0,0E0,0E0,0E0],"parents":[2147483647,0,0,1,1,2,2,3,3,4,4,5,5,6,6,7,7,8,8,9,9,10,10,11,11,12,12,13,13,14,14],"right_children":[2,4,6,8,10,12,14,16,18,20,22,24,26,28,30,-1,-1,-1,-1,-1,-1,-1,-1,-1,-1,-1,-1,-1,-1,-1,-1],"split_conditions":[1.0763E4,2.153057E3,8.29306E2,9.090603E3,-7.0710677E-1,7.86E2,9.659258E-1,1.84E1,3.054E3,1.9517008E4,9.659258E-1,9.58463E2,1.721E3,2.2667E4,1E0,1.5244137E0,4.630631E-1,-5.0367147E-1,1.5420729E-1,1.500601E0,-4.9631514E-2,-3.762795E-1,3.9626364E-2,1.6130612E0,9.12478E-1,1.431845E0,4.4609582E-1,1.8143915E-1,8.975541E-1,1.1697022E0,3.7668845E-1],"split_indices":[10,18,18,19,20,16,20,1,10,19,20,17,9,10,16,0,0,0,0,0,0,0,0,0,0,0,0,0,0,0,0],"split_type":[0,0,0,0,0,0,0,0,0,0,0,0,0,0,0,0,0,0,0,0,0,0,0,0,0,0,0,0,0,0,0],"sum_hessian":[1.4024E4,9.92E3,4.104E3,2.404E3,7.516E3,5.67E2,3.537E3,1.13E2,2.291E3,1.182E3,6.334E3,3.42E2,2.25E2,3.206E3,3.31E2,6.9E1,4.4E1,2.12E2,2.079E3,8.4E1,1.098E3,5.387E3,9.47E2,8.8E1,2.54E2,2.5E1,2E2,2.973E3,2.33E2,2E2,1.31E2],"tree_param":{"num_deleted":"0","num_feature":"29","num_nodes":"31","size_leaf_vector":"1"}},{"base_weights":[-6.6296407E-3,-3.513274E0,3.1332564E0,-1.2027545E0,-5.7658224E0,2.1802788E0,9.444583E0,1.0420628E1,-2.1339293E0,-1.1320154E1,-4.712404E0,3.2891943E0,-2.7666395E0,1.1123911E1,1.0100833E0,2.3999326E-1,1.3401514E0,-2.0310386E-1,4.911662E-1,-7.483999E-1,-1.47668E0,-2.750858E-1,-7.70604E-1,2.9514328E-1,-8.6181454E-2,-2.9275113E-1,3.120615E-1,9.851754E-1,5.743215E-1,2.6836607E-1,-2.8492644E-1],"categories":[],"categories_nodes":[],"categories_segments":[],"categories_sizes":[],"default_left":[0,0,0,0,0,0,0,0,1,0,0,0,0,0,0,0,0,0,0,0,0,0,0,0,0,0,0,0,0,0,0],"id":39,"left_children":[1,3,5,7,9,11,13,15,17,19,21,23,25,27,29,-1,-1,-1,-1,-1,-1,-1,-1,-1,-1,-1,-1,-1,-1,-1,-1],"loss_changes":[1.5324364E5,3.421296E4,4.4144164E4,3.5165727E4,1.9424602E4,3.5013453E4,1.3628852E4,1.46356875E4,2.114021E4,3.0315078E3,1.3753496E4,2.1852879E4,1.1973595E4,6.799789E3,2.3252744E3,0E0,0E0,0E0,0E0,0E0,0E0,0E0,0E0,0E0,0E0,0E0,0E0,0E0,0E0,0E0,0E0],"parents":[2147483647,0,0,1,1,2,2,3,3,4,4,5,5,6,6,7,7,8,8,9,9,10,10,11,11,12,12,13,13,14,14],"right_children":[2,4,6,8,10,12,14,16,18,20,22,24,26,28,30,-1,-1,-1,-1,-1,-1,-1,-1,-1,-1,-1,-1,-1,-1,-1,-1],"split_conditions":[6.488E3,2.4630625E4,1.9318E4,-7.0710677E-1,2.427E3,5.161171E3,2.137E3,7.309513E-2,1.8E2,5.059E3,3.2336756E4,4.559E3,8.660254E-1,3.85E3,4.2684008E4,2.3999326E-1,1.3401514E0,-2.0310386E-1,4.911662E-1,-7.483999E-1,-1.47668E0,-2.750858E-1,-7.70604E-1,2.9514328E-1,-8.6181454E-2,-2.9275113E-1,3.120615E-1,9.851754E-1,5.743215E-1,2.6836607E-1,-2.8492644E-1],"split_indices":[10,19,10,20,10,18,16,25,28,14,19,14,20,14,19,0,0,0,0,0,0,0,0,0,0,0,0,0,0,0,0],"split_type":[0,0,0,0,0,0,0,0,0,0,0,0,0,0,0,0,0,0,0,0,0,0,0,0,0,0,0,0,0,0,0],"sum_hessian":[1.3916E4,6.574E3,7.342E3,3.246E3,3.328E3,6.38E3,9.62E2,2.4E2,3.006E3,5.29E2,2.799E3,5.212E3,1.168E3,8.02E2,1.6E2,1.34E2,1.06E2,2.774E3,2.32E2,4.99E2,3E1,2.491E3,3.08E2,4.325E3,8.87E2,9.77E2,1.91E2,3.97E2,4.05E2,1.03E2,5.7E1],"tree_param":{"num_deleted":"0","num_feature":"29","num_nodes":"31","size_leaf_vector":"1"}},{"base_weights":[2.9792769E-2,-2.0073802E0,4.701839E0,-8.559465E-1,-6.208605E0,1.137156E1,3.6023083E0,2.5107133E0,-1.8659151E0,-5.264874E0,-1.0097539E1,1.4237646E1,6.0703616E0,2.7717102E0,1.164272E1,-2.5524697E-1,3.3188888E-1,-3.8392484E-1,-2.7469333E-2,-2.2890775E-1,-5.656127E-1,-2.5083667E-1,-7.710847E-1,1.197497E0,7.3508835E-1,1.3010125E0,3.3241308E-1,1.5005767E-1,8.7797475E-1,1.0863272E0,3.6965385E-1],"categories":[],"categories_nodes":[],"categories_segments":[],"categories_sizes":[],"default_left":[0,0,0,0,0,0,0,0,0,0,0,0,0,0,0,0,0,0,0,0,0,0,0,0,0,0,0,0,0,0,0],"id":40,"left_children":[1,3,5,7,9,11,13,15,17,19,21,23,25,27,29,-1,-1,-1,-1,-1,-1,-1,-1,-1,-1,-1,-1,-1,-1,-1,-1],"loss_changes":[1.3343903E5,4.7222457E4,3.1177867E4,2.606397E4,7.653922E3,9.059977E3,2.4383637E4,2.4312316E4,3.143631E4,9.475516E3,2.406082E3,4.001414E3,3.4346475E3,2.0314926E4,8.351715E3,0E0,0E0,0E0,0E0,0E0,0E0,0E0,0E0,0E0,0E0,0E0,0E0,0E0,0E0,0E0,0E0],"parents":[2147483647,0,0,1,1,2,2,3,3,4,4,5,5,6,6,7,7,8,8,9,9,10,10,11,11,12,12,13,13,14,14],"right_children":[2,4,6,8,10,12,14,16,18,20,22,24,26,28,30,-1,-1,-1,-1,-1,-1,-1,-1,-1,-1,-1,-1,-1,-1,-1,-1],"split_conditions":[1.0493E4,6.356714E3,8.29306E2,3.195E3,4.978E3,8.5E1,9.659258E-1,8.8E1,3.51E3,1.0886443E4,-5E-1,1.618483E3,1.854E3,2.301E4,1E0,-2.5524697E-1,3.3188888E-1,-3.8392484E-1,-2.7469333E-2,-2.2890775E-1,-5.656127E-1,-2.5083667E-1,-7.710847E-1,1.197497E0,7.3508835E-1,1.3010125E0,3.3241308E-1,1.5005767E-1,8.7797475E-1,1.0863272E0,3.6965385E-1],"split_indices":[10,18,18,14,16,4,20,26,10,17,20,17,9,10,16,0,0,0,0,0,0,0,0,0,0,0,0,0,0,0,0],"split_type":[0,0,0,0,0,0,0,0,0,0,0,0,0,0,0,0,0,0,0,0,0,0,0,0,0,0,0,0,0,0,0],"sum_hessian":[1.4018E4,9.762E3,4.256E3,7.663E3,2.099E3,6.01E2,3.655E3,1.768E3,5.895E3,1.691E3,4.08E2,3.89E2,2.12E2,3.314E3,3.41E2,4.7E2,1.298E3,1.705E3,4.19E3,9.91E2,7E2,5.1E1,3.57E2,2.18E2,1.71E2,1.9E1,1.93E2,3.115E3,1.99E2,2.11E2,1.3E2],"tree_param":{"num_deleted":"0","num_feature":"29","num_nodes":"31","size_leaf_vector":"1"}},{"base_weights":[-6.750453E-4,-1.8698477E0,4.3155723E0,-7.2180647E-1,-5.461455E0,1.0406389E1,3.2447774E0,3.50605E-1,-4.366697E0,-4.6347966E0,-9.572637E0,1.6586277E1,8.393293E0,4.518332E0,-1.3464037E0,7.691243E-2,-2.8805658E-1,-6.724618E-1,-2.3178035E-1,-2.4008876E-1,-5.6344265E-1,-6.0144466E-1,-1.1452789E0,1.2197461E0,-5.000171E-1,7.4617785E-1,2.675676E-1,3.9010233E-1,-2.5316775E-2,-2.2271262E-1,3.4579864E-1],"categories":[],"categories_nodes":[],"categories_segments":[],"categories_sizes":[],"default_left":[0,0,0,0,0,0,0,0,0,0,0,0,0,0,0,0,0,0,0,0,0,0,0,0,0,0,0,0,0,0,0],"id":41,"left_children":[1,3,5,7,9,11,13,15,17,19,21,23,25,27,29,-1,-1,-1,-1,-1,-1,-1,-1,-1,-1,-1,-1,-1,-1,-1,-1],"loss_changes":[1.1346568E5,4.046219E4,2.7684656E4,2.9075393E4,8.0338203E3,7.7603906E3,2.1149305E4,1.9208479E4,9.320936E3,8.1224844E3,2.5018398E3,3.2092344E3,4.942004E3,1.4571082E4,9.083628E3,0E0,0E0,0E0,0E0,0E0,0E0,0E0,0E0,0E0,0E0,0E0,0E0,0E0,0E0,0E0,0E0],"parents":[2147483647,0,0,1,1,2,2,3,3,4,4,5,5,6,6,7,7,8,8,9,9,10,10,11,11,12,12,13,13,14,14],"right_children":[2,4,6,8,10,12,14,16,18,20,22,24,26,28,30,-1,-1,-1,-1,-1,-1,-1,-1,-1,-1,-1,-1,-1,-1,-1,-1],"split_conditions":[1.0493E4,6.111482E3,8.41604E2,4.479E3,5.254E3,-9.721182E-1,4.328E3,6.943E3,2.682E3,1.1274656E4,3.433618E4,5.585E3,1.344E3,5.333935E3,9.84E2,7.691243E-2,-2.8805658E-1,-6.724618E-1,-2.3178035E-1,-2.4008876E-1,-5.6344265E-1,-6.0144466E-1,-1.1452789E0,1.2197461E0,-5.000171E-1,7.4617785E-1,2.675676E-1,3.9010233E-1,-2.5316775E-2,-2.2271262E-1,3.4579864E-1],"split_indices":[10,18,18,14,16,24,14,16,10,17,19,16,16,18,15,0,0,0,0,0,0,0,0,0,0,0,0,0,0,0,0],"split_type":[0,0,0,0,0,0,0,0,0,0,0,0,0,0,0,0,0,0,0,0,0,0,0,0,0,0,0,0,0,0,0],"sum_hessian":[1.4062E4,9.813E3,4.249E3,7.437E3,2.376E3,6.34E2,3.615E3,5.747E3,1.69E3,1.98E3,3.96E2,1.54E2,4.8E2,2.83E3,7.85E2,4.923E3,8.24E2,2.82E2,1.408E3,1.465E3,5.15E2,3.48E2,4.8E1,1.49E2,5E0,3.2E2,1.6E2,2.327E3,5.03E2,6.08E2,1.77E2],"tree_param":{"num_deleted":"0","num_feature":"29","num_nodes":"31","size_leaf_vector":"1"}},{"base_weights":[-2.4372475E-2,-1.7735373E0,4.277841E0,2.2485971E0,-2.8247387E0,3.1687777E0,9.810235E0,1.4837122E1,1.6732166E0,-1.5430161E0,-5.3677135E0,7.1918473E0,1.5096993E0,1.458734E1,3.2219245E0,1.3763995E0,2.8056553E-1,1.791307E-1,-2.9944497E-1,1.21193845E-2,-4.080256E-1,-6.6892296E-1,-2.7703193E-1,8.378528E-1,3.7449428E-1,2.1782249E-1,-2.0625329E-1,6.124207E-1,1.2086226E0,4.087865E-1,-7.410194E-2],"categories":[],"categories_nodes":[],"categories_segments":[],"categories_sizes":[],"default_left":[0,0,0,0,0,0,0,0,0,0,0,0,0,0,0,0,0,0,0,0,0,0,0,0,0,0,0,0,0,0,0],"id":42,"left_children":[1,3,5,7,9,11,13,15,17,19,21,23,25,27,29,-1,-1,-1,-1,-1,-1,-1,-1,-1,-1,-1,-1,-1,-1,-1,-1],"loss_changes":[1.0530881E5,4.2071465E4,2.4788008E4,1.4910472E4,2.5701703E4,2.248909E4,2.1197133E4,4.624176E3,1.0411321E4,3.8586883E4,1.5571672E4,8.59477E3,1.7057143E4,5.9637266E3,3.199913E3,0E0,0E0,0E0,0E0,0E0,0E0,0E0,0E0,0E0,0E0,0E0,0E0,0E0,0E0,0E0,0E0],"parents":[2147483647,0,0,1,1,2,2,3,3,4,4,5,5,6,6,7,7,8,8,9,9,10,10,11,11,12,12,13,13,14,14],"right_children":[2,4,6,8,10,12,14,16,18,20,22,24,26,28,30,-1,-1,-1,-1,-1,-1,-1,-1,-1,-1,-1,-1,-1,-1,-1,-1],"split_conditions":[1.0861E4,1.952992E3,8.660254E-1,7.594558E3,7.0710677E-1,3.57E3,1.17E2,1.91E1,2.6986557E4,5.291E3,-2.5881904E-1,2.158872E3,4.395978E3,-1.8369701E-16,1.898E3,1.3763995E0,2.8056553E-1,1.791307E-1,-2.9944497E-1,1.21193845E-2,-4.080256E-1,-6.6892296E-1,-2.7703193E-1,8.378528E-1,3.7449428E-1,2.1782249E-1,-2.0625329E-1,6.124207E-1,1.2086226E0,4.087865E-1,-7.410194E-2],"split_indices":[10,18,20,19,21,14,16,1,19,16,20,17,18,21,16,0,0,0,0,0,0,0,0,0,0,0,0,0,0,0,0],"split_type":[0,0,0,0,0,0,0,0,0,0,0,0,0,0,0,0,0,0,0,0,0,0,0,0,0,0,0,0,0,0,0],"sum_hessian":[1.3992E4,9.948E3,4.044E3,2.061E3,7.887E3,3.37E3,6.74E2,8.9E1,1.972E3,5.245E3,2.642E3,9.83E2,2.387E3,3.9E2,2.84E2,6.1E1,2.8E1,1.717E3,2.55E2,3.746E3,1.499E3,6.64E2,1.978E3,2.72E2,7.11E2,1.756E3,6.31E2,1.24E2,2.66E2,1.76E2,1.08E2],"tree_param":{"num_deleted":"0","num_feature":"29","num_nodes":"31","size_leaf_vector":"1"}},{"base_weights":[7.746853E-2,-2.5796602E0,2.5786755E0,-3.7683597E-1,-4.371297E0,3.598182E0,-1.8333154E0,1.1214358E1,-1.3255244E0,-8.989828E0,-3.4959738E0,4.9648886E0,1.348387E-1,-9.8074657E-1,-9.872632E0,3.1060684E-1,1.3224094E0,1.0149706E-1,-2.5138003E-1,-5.889779E-1,-1.0993134E0,-1.9327062E-1,-5.5434644E-1,2.1002357E-1,6.42141E-1,3.854328E-1,-1.5876818E-1,-3.626205E-3,-7.1024275E-1,-1.6253101E0,-5.9106326E-1],"categories":[],"categories_nodes":[],"categories_segments":[],"categories_sizes":[],"default_left":[0,0,0,0,0,0,0,0,0,0,0,0,0,0,0,0,0,0,0,0,0,0,0,0,0,0,0,0,0,0,0],"id":43,"left_children":[1,3,5,7,9,11,13,15,17,19,21,23,25,27,29,-1,-1,-1,-1,-1,-1,-1,-1,-1,-1,-1,-1,-1,-1,-1,-1],"loss_changes":[9.323051E4,2.6843492E4,3.2509543E4,3.3575883E4,1.5132641E4,2.7784188E4,9.291183E3,1.1934713E4,1.7750488E4,2.1760352E3,1.023475E4,3.4772055E4,2.1464123E4,1.045494E4,2.282707E3,0E0,0E0,0E0,0E0,0E0,0E0,0E0,0E0,0E0,0E0,0E0,0E0,0E0,0E0,0E0,0E0],"parents":[2147483647,0,0,1,1,2,2,3,3,4,4,5,5,6,6,7,7,8,8,9,9,10,10,11,11,12,12,13,13,14,14],"right_children":[2,4,6,8,10,12,14,16,18,20,22,24,26,28,30,-1,-1,-1,-1,-1,-1,-1,-1,-1,-1,-1,-1,-1,-1,-1,-1],"split_conditions":[6.758E3,2.375946E4,5.064065E3,-7.0710677E-1,2.427E3,1.898E3,8.580532E3,7.309513E-2,7.0710677E-1,4.99E3,3.1643219E4,5E-1,-2.5881904E-1,3.455E3,3.4667996E4,3.1060684E-1,1.3224094E0,1.0149706E-1,-2.5138003E-1,-5.889779E-1,-1.0993134E0,-1.9327062E-1,-5.5434644E-1,2.1002357E-1,6.42141E-1,3.854328E-1,-1.5876818E-1,-3.626205E-3,-7.1024275E-1,-1.6253101E0,-5.9106326E-1],"split_indices":[10,19,18,20,10,16,18,25,21,14,19,20,20,16,19,0,0,0,0,0,0,0,0,0,0,0,0,0,0,0,0],"split_type":[0,0,0,0,0,0,0,0,0,0,0,0,0,0,0,0,0,0,0,0,0,0,0,0,0,0,0,0,0,0,0],"sum_hessian":[1.4026E4,6.801E3,7.225E3,3.051E3,3.75E3,5.869E3,1.356E3,2.3E2,2.821E3,5.96E2,3.154E3,4.208E3,1.661E3,1.227E3,1.29E2,1.23E2,1.07E2,1.268E3,1.553E3,5.51E2,4.5E1,2.706E3,4.48E2,2.87E3,1.338E3,5.13E2,1.148E3,1.115E3,1.12E2,1.1E1,1.18E2],"tree_param":{"num_deleted":"0","num_feature":"29","num_nodes":"31","size_leaf_vector":"1"}},{"base_weights":[1.8210214E-2,-1.539971E0,3.7369874E0,2.1363347E0,-2.466398E0,4.9533076E0,-3.9292735E-1,1.6949604E1,1.6368477E0,-1.313123E0,-4.8077507E0,6.1929836E0,9.3662095E-1,2.527468E-1,-1.0659226E1,2.1597037E0,9.016182E-1,-1.9113397E-2,2.966741E-1,6.2009646E-3,-3.6548173E-1,-6.3833797E-1,-2.3791663E-1,3.023991E-1,6.612572E-1,1.2151212E-1,-5.5356556E-1,1.7726462E-1,-1.9933729E-1,-3.4482238E-1,-1.0153857E0],"categories":[],"categories_nodes":[],"categories_segments":[],"categories_sizes":[],"default_left":[0,0,0,0,0,0,0,0,0,0,0,0,0,0,0,0,0,0,0,0,0,0,0,0,0,0,0,0,0,0,0],"id":44,"left_children":[1,3,5,7,9,11,13,15,17,19,21,23,25,27,29,-1,-1,-1,-1,-1,-1,-1,-1,-1,-1,-1,-1,-1,-1,-1,-1],"loss_changes":[8.151741E4,3.377066E4,2.0868781E4,1.4740544E4,2.1376703E4,1.5972984E4,6.2735327E3,3.2796953E3,9.599982E3,2.9071934E4,1.58414375E4,1.4901242E4,5.372175E3,6.3045625E3,1.1632344E3,0E0,0E0,0E0,0E0,0E0,0E0,0E0,0E0,0E0,0E0,0E0,0E0,0E0,0E0,0E0,0E0],"parents":[2147483647,0,0,1,1,2,2,3,3,4,4,5,5,6,6,7,7,8,8,9,9,10,10,11,11,12,12,13,13,14,14],